/***********************************************************************************************************************
* DISCLAIMER
* This software is supplied by Renesas Electronics Corporation and is only intended for use with Renesas products. No 
* other uses are authorized. This software is owned by Renesas Electronics Corporation and is protected under all 
* applicable laws, including copyright laws. 
* THIS SOFTWARE IS PROVIDED 'AS IS' AND RENESAS MAKES NO WARRANTIES REGARDING
* THIS SOFTWARE, WHETHER EXPRESS, IMPLIED OR STATUTORY, INCLUDING BUT NOT LIMITED TO WARRANTIES OF MERCHANTABILITY, 
* FITNESS FOR A PARTICULAR PURPOSE AND NON-INFRINGEMENT. ALL SUCH WARRANTIES ARE EXPRESSLY DISCLAIMED. TO THE MAXIMUM
* EXTENT PERMITTED NOT PROHIBITED BY LAW, NEITHER RENESAS ELECTRONICS CORPORATION NOR ANY OF ITS AFFILIATED COMPANIES 
* SHALL BE LIABLE FOR ANY DIRECT, INDIRECT, SPECIAL, INCIDENTAL OR CONSEQUENTIAL DAMAGES FOR ANY REASON RELATED TO THIS 
* SOFTWARE, EVEN IF RENESAS OR ITS AFFILIATES HAVE BEEN ADVISED OF THE POSSIBILITY OF SUCH DAMAGES.
* Renesas reserves the right, without notice, to make changes to this software and to discontinue the availability of 
* this software. By using this software, you agree to the additional terms and conditions found by accessing the 
* following link:
* http://www.renesas.com/disclaimer 
*
* Changed from original python code to C source code.
* Copyright (C) 2017 Renesas Electronics Corporation. All rights reserved.
***********************************************************************************************************************/
/***********************************************************************************************************************
* File Name    : weights.h
* Version      : 1.00
* Description  : Weights and biases of the layers
***********************************************************************************************************************/
/**********************************************************************************************************************
* History : DD.MM.YYYY Version  Description
*         : 16.06.2017 1.00     First Release
***********************************************************************************************************************/

#ifndef WEIGHTS_H_
#define WEIGHTS_H_
// Default Input, Output scale and zero point values of the model
const  TPrecision ip_op_scale[] = {0.0,0.0};
const  TsInt8 ip_op_zero_point[] = {0,0};
// Weights and bias tensor values for required layers
const  TPrecision conv2d_weights[] = {0.0957045778632164,-0.10647102445363998,-0.021433323621749878,0.0568983368575573,-0.09346312284469604,-0.06842377781867981,-0.03376321494579315,0.020459864288568497,0.16340388357639313,0.024523921310901642,0.036532238125801086,-0.0030895036179572344,-0.08435790240764618,-0.04280270263552666,-0.10599074512720108,-0.1120983436703682,0.15920236706733704,0.012344892136752605,0.00940786860883236,-0.04216495156288147,0.06385211646556854,-0.056915055960416794,0.13378594815731049,-0.018374687060713768,-0.01754600740969181,-0.027754832059144974,0.10659590363502502,0.11756304651498795,-0.09032104909420013,-0.04821031540632248,0.052797041833400726,0.05055193603038788,0.0036883039865642786,0.113398976624012,0.03940679877996445,0.10866383463144302,-0.1760738343000412,0.04175698757171631,-0.013455484062433243,0.01627177745103836,-0.005739984102547169,-0.05886673554778099,0.07800542563199997,-0.0967511236667633,0.016890406608581543,0.09532829374074936,-0.08029116690158844,0.0752851739525795,-0.08813585340976715,-0.07123889774084091,-0.1221403181552887,-0.06360090523958206,0.10079265385866165,0.10306188464164734,0.05629907548427582,0.02019471302628517,0.021530862897634506,-0.0027629814576357603,0.04659822955727577,0.027349311858415604,0.014181491918861866,0.09142929315567017,-0.08213569223880768,-0.028060225769877434,-0.08078555017709732,0.07769775390625,-0.08416974544525146,-0.08397920429706573,-0.01663205772638321,0.11086542159318924,-0.02229112572968006,0.15647639334201813,0.029945064336061478,0.0318240225315094,-0.0422675758600235,0.029405495151877403,0.07022411376237869,0.0042310915887355804,0.009744723327457905,0.01722230389714241,0.014974121935665607,-0.04936498776078224,-0.09788612276315689,-0.016885187476873398,0.15425215661525726,0.04287828505039215,0.20577408373355865,0.1309548318386078,0.00922586303204298,-0.0459977388381958,0.05615462362766266,-0.01621253788471222,0.046549491584300995,-0.04487128183245659,0.023868389427661896,0.10044126957654953,-0.03273012489080429,-0.05838387832045555,0.15917983651161194,-0.06364569813013077,-0.05706743896007538,0.08652722835540771,-0.15441252291202545,-0.032696351408958435,0.19783206284046173,0.10510135442018509,-0.09788434952497482,0.11530110239982605,0.1401214301586151,0.07578945904970169,-0.11389496922492981,-0.07187584787607193,-0.20417901873588562,-0.08295690268278122,0.10133293271064758,-0.02362990565598011,0.02914523147046566,0.01116173155605793,0.041772741824388504,-0.009108364582061768,0.008234472945332527,0.03765258938074112,-0.03958482667803764,-0.03529452905058861,-0.03420514985918999,0.04912658408284187,-0.030645033344626427,0.040640346705913544,0.10238570719957352,-0.01786063052713871,-0.02948552370071411,-0.03382500261068344,-0.03449578583240509,0.0805157944560051,-0.004663859028369188,0.0213303305208683,0.025830058380961418,-0.011260931380093098,-0.056111037731170654,-0.06815196573734283,0.08709657937288284,0.04961349815130234,-0.07455305010080338,0.07700663059949875,-0.028911754488945007,0.058778248727321625,0.07046564668416977,-0.051393236964941025,0.01503320224583149,0.16751538217067719,0.07806020230054855,0.0006797427195124328,-0.06625472009181976,0.05147254839539528,-0.034776002168655396,0.1517340987920761,0.0932803675532341,-0.04186597466468811,0.002720971591770649,-0.02130305767059326,-0.1478411853313446,-0.01190253160893917,0.048613883554935455,0.0020061181858181953,-0.015455421060323715,0.05573209002614021,-0.04014777019619942,-0.06056917831301689,-0.07639017701148987,0.028310460969805717,0.008048929274082184,0.09193454682826996,-0.034454043954610825,0.012256242334842682,-0.013654300011694431,-0.06528744101524353,-0.04031812399625778,0.0845770612359047,0.09294260293245316,0.0650525912642479,-0.0854463204741478,-0.14363110065460205,0.020026795566082,-0.015126481652259827,0.04027125984430313,-0.012712338007986546,0.10211002081632614,-0.001377556473016739,0.007387166377156973,-0.07162198424339294,-0.09805824607610703,0.044009484350681305,0.06327832490205765,0.007478758692741394,0.06696715205907822,0.09944245964288712,0.08126816898584366,0.052392859011888504,-0.036227546632289886,0.02933897078037262,-0.01884857565164566,-0.20813724398612976,0.044475868344306946,-0.041060399264097214,-0.03171650320291519,0.029287386685609818,0.10197439789772034,0.05823768675327301,-0.04260917380452156,0.07673367857933044,-0.10296947509050369,0.037768248468637466,0.16508996486663818,0.0485161729156971,-0.07264038920402527,-0.10786759108304977,-0.015632282942533493,-0.005152000114321709,0.1150369718670845,0.12351936846971512,0.07341241836547852,-0.0011428901925683022,-0.04827087000012398,-0.0725535899400711,-0.034144263714551926,0.08243851363658905,0.006536615546792746,-0.04713182523846626,-0.01406644843518734,-0.07780256867408752,-0.058748528361320496,0.021318694576621056,-0.1239495798945427,0.06128135696053505,-0.08035939931869507,0.12402156740427017,0.018568895757198334,-0.04767260327935219,0.06476130336523056,0.08192525058984756,-0.09936285018920898,-0.08567777276039124,-0.0058887675404548645,-0.07234452664852142,0.07125698775053024,-0.00014130520867183805,0.0019777717534452677,0.17724958062171936,-0.033692460507154465,-0.027037542313337326,0.12173439562320709,0.12053394317626953,-0.02851252630352974,-0.01352832093834877,0.00431100744754076,0.057291023433208466,-0.10312484949827194,0.000716333684977144,0.09794564545154572,0.15119755268096924,-0.14847099781036377,-0.11160985380411148,0.060854315757751465,-0.11020953953266144,0.10693982243537903,0.0787353664636612,0.05104168504476547,-0.07149723172187805,-0.12102015316486359,0.060045696794986725,-0.06115123629570007,0.024838007986545563,-0.20704111456871033,0.06748049706220627,-0.07188976556062698,0.08862119913101196,-0.1776597499847412,-0.00014286783698480576,0.05348973721265793,-0.006041217595338821,0.10108280181884766,-0.12456844002008438,0.00875778030604124,-0.047644734382629395,0.06686486303806305,-0.001940740505233407,0.03199925273656845,0.08388599008321762,-0.0696558803319931,-0.057539504021406174,-0.06403425335884094,-0.004767492413520813,-0.05172509327530861,0.08330043405294418,0.003168621100485325,-0.09220544993877411,-0.12044243514537811,0.023786937817931175,0.14406968653202057,0.097893126308918,0.09157682210206985,-0.24415475130081177,-0.1839054822921753,-0.14842092990875244,0.08856962621212006,0.02871699258685112,-0.018961522728204727,0.0566103421151638,-0.09204667806625366,-0.10937590152025223,-0.028060538694262505,0.10933951288461685,0.003934502135962248,-0.02573467418551445,0.05634671077132225,0.12920741736888885,-0.12082433700561523,-0.030070040374994278,0.0821758434176445,0.05522032454609871,0.018840117380023003,-0.10878366976976395,0.10789664089679718,0.1562151163816452,-0.05412781611084938,0.05279955640435219,0.01752515882253647,0.05170382559299469,0.028554992750287056,-0.031291160732507706,0.07685168087482452,-0.06661691516637802,0.1466548889875412,-0.07670937478542328,0.11101484298706055,0.03958868607878685,0.0025905966758728027,-0.010901220142841339,-0.07878506928682327,0.03980424255132675,-0.10134965181350708,0.0652843788266182,0.01491641253232956,0.032261013984680176,-0.01984552852809429,-0.29959022998809814,-0.12983429431915283,0.19247986376285553,0.06252710521221161,0.0644034743309021,0.01689768396317959,-0.06220086291432381,-0.039450615644454956,0.17177027463912964,0.08912254869937897,0.03043489158153534,-0.022862326353788376,0.016596637666225433,-0.06371758878231049,0.0005619415314868093,-0.13031256198883057,-0.01348629780113697,0.0014947293093428016,0.04072963073849678,0.14372509717941284,0.06340543925762177,-0.018316645175218582,-0.025789804756641388,-0.036752864718437195,0.05482887849211693,0.11785633862018585,-0.05952651798725128,0.004357887431979179,-0.0552872009575367,0.05930376797914505,-0.09105336666107178,-0.012926381081342697,-0.08949384093284607,0.07591139525175095,0.035684339702129364,0.10104168206453323,-0.12586943805217743,-0.01235053688287735,0.18443843722343445,-0.020473841577768326,0.09810943156480789,-0.06935875117778778,0.010512098670005798,-0.09906917065382004,-0.06133722886443138,-0.06415832042694092,0.08685212582349777,-0.032197292894124985,0.1613282859325409,-0.18373826146125793,-0.0734211653470993,0.006212763953953981,-0.07940179854631424,0.07356109470129013,-0.1666080504655838,-0.057319365441799164,0.08717520534992218,0.16192442178726196,0.13463550806045532,-0.13205933570861816,0.0028548261616379023,-0.11244271695613861,-0.043702658265829086,0.01820768602192402,0.05495390295982361,-0.05430569499731064,-0.13047301769256592,0.06413552910089493,-0.05665004625916481,0.15092241764068604,-0.07312824577093124,0.039632637053728104,-0.16025443375110626,-0.18619558215141296,-0.01795131340622902,0.07043831795454025,0.040546778589487076,0.14020945131778717,-0.05247370898723602,0.02121640555560589,0.023477870970964432,0.04300345107913017,-0.11987840384244919,-0.05640453100204468,0.120588019490242,0.13907375931739807,-0.008046434260904789,0.08171334117650986,-0.024935856461524963,-0.10343227535486221,0.011966831982135773,0.0787404254078865,-0.04400160536170006,-0.0862857848405838,0.03868701308965683,-0.03520654886960983,0.07349979877471924,-0.09471601247787476,-0.156389057636261,0.09419362246990204,0.00036540901055559516,-0.09262920171022415,0.18658381700515747,0.10566049069166183,-0.1744496077299118,-0.12272235006093979,0.008902194909751415,0.12103507667779922,0.0055205849930644035,0.02068609744310379,-0.15686112642288208,-0.06388906389474869,0.09591643512248993,0.16068053245544434,-0.0371750071644783,-0.019883980974555016,0.05198128521442413,-0.16195859014987946,-0.0828067734837532,-0.0350000374019146,-0.05921455845236778,-0.056586600840091705,-0.15104997158050537,0.22184516489505768,0.0053759366273880005,0.09498810768127441,0.15007418394088745,-0.10769278556108475,-0.05977693572640419,0.022952308878302574,-0.04998687654733658,-0.06957373768091202,0.021172411739826202,0.07185710966587067,0.09465723484754562,0.15309765934944153,-0.0019246003357693553,0.25808876752853394,0.0040711089968681335,-0.05249945819377899,-0.03773865848779678,0.05337744206190109,0.09815307706594467,-0.10029041022062302,0.03929709643125534,-0.041614700108766556,-0.05784054845571518,-0.12958836555480957,-0.0874578058719635,0.06294725090265274,0.07757315039634705,0.14365282654762268,0.03384198993444443,-0.10886851698160172,-0.0786590725183487,0.07956051826477051,0.015640459954738617,0.10778030008077621,0.0068762097507715225,0.10330314934253693,0.05166437476873398,0.02761884033679962,-0.0745646059513092,-0.03233223408460617,0.05965655669569969,-0.06920614093542099,-0.13310763239860535,-0.029695404693484306,-0.026079175993800163,0.03730640560388565,0.010911397635936737,0.06298057734966278,-0.01071983017027378,-0.030501695349812508,0.08250722289085388,0.03140505403280258,0.03769432380795479,0.016536492854356766,0.059445060789585114,0.08100815117359161,-0.016673989593982697,0.048603177070617676,-0.10315854102373123,0.02785913646221161,-0.002895520068705082,0.12777502834796906,0.11346586048603058,-0.052306320518255234,0.08377774804830551,0.033698566257953644,0.047380320727825165,0.020986013114452362,0.07824049144983292,0.03214464336633682,-0.0857815071940422,0.0020394150633364916,-0.044924572110176086,0.10733228176832199,0.08092600852251053,0.10302986949682236,0.02239132672548294,0.0678439512848854,0.168964222073555,-0.0028714134823530912,0.049410413950681686,-0.013612570241093636,0.04931759461760521,0.0666639506816864,0.04290761053562164,-0.0935901552438736,0.15002085268497467,0.06045936048030853,-0.016489965841174126,-0.11477815359830856,-0.05564793571829796,0.0770299881696701,-0.037961095571517944,0.024615313857793808,-0.07365874946117401,0.04463766887784004,-0.02805793471634388,0.041591644287109375,-0.1216006800532341,-0.2897941768169403,-0.2208748310804367,-0.09560225903987885,-0.1557638794183731,-0.2053869664669037,-0.09830597788095474,0.011605808511376381,-0.2785056531429291,-0.23307758569717407,-0.13729478418827057,-0.06761082261800766,-0.06848816573619843,0.06130250170826912,-0.06504585593938828,-0.03279776871204376,-0.08055368065834045,-0.10392850637435913,0.047465793788433075,0.09463585168123245,0.021846435964107513,-0.007954167202115059,0.02536620758473873,0.04355241730809212,0.08425620943307877,0.03139394149184227,-0.08202667534351349,-0.062044139951467514,-0.05876583606004715,0.00839493703097105,0.035382118076086044,-0.048836302012205124,0.02257513627409935,-0.011973797343671322,-0.05673128366470337,0.10016161948442459,0.1221453920006752,0.039013829082250595,0.018170274794101715,0.031654998660087585,-0.1350700408220291,0.08991621434688568,-0.11753210425376892,-0.0634138435125351,0.058931395411491394,0.025318600237369537,0.004979666788130999,0.03401529788970947,-0.08713821321725845,0.08390609920024872,-0.03949619084596634,-0.048749763518571854,-0.11357184499502182,0.024694256484508514,0.09283600747585297,-0.13393434882164001,-0.12454105168581009,0.12369384616613388,0.013387151062488556,0.13678400218486786,0.09023971855640411,0.11142776906490326,-0.03202563896775246,-0.016081228852272034,0.09133272618055344,0.024050526320934296,0.012494303286075592,-0.04026613384485245,-0.00689360499382019,-0.07063392549753189,-0.11155705899000168,-0.09162964671850204,0.031649746000766754,-0.024009104818105698,-0.007426213938742876,0.0936172753572464,0.04151549190282822,0.05839131027460098,-0.02737176977097988,-0.04280111566185951,0.01016337051987648,-0.072776198387146,-0.022220417857170105,-0.003901873016729951,0.1042843908071518,0.0016291463980451226,0.030517732724547386,-0.05321311205625534,-0.03331674262881279,-0.0784182995557785,0.13885295391082764,-0.006766888778656721,-0.027307014912366867,0.07815322279930115,-0.11163458228111267,0.04114867374300957,0.04847098886966705,0.08599016070365906,0.10206463187932968,-0.08359356969594955,0.10006068646907806,-0.13313882052898407,0.009683789685368538,-0.06197622790932655,-0.017912931740283966,-0.008678537793457508,0.020361371338367462,0.16292069852352142,0.055251285433769226,-0.07332172244787216,-0.021770644932985306,0.037003662437200546,-0.02897050976753235,-0.09352471679449081,-0.0024852976202964783,-0.09377289563417435,-0.06785379350185394,-0.04199769347906113,0.032433830201625824,0.09817933291196823,0.09112607687711716,0.07185504585504532,0.00401691347360611,0.07630043476819992,-0.05854906886816025,-0.03086298331618309,0.043049588799476624,-0.06633923947811127,0.0613255649805069,0.03988945856690407,-0.06493616104125977,-0.11103781312704086,-0.022532964125275612,-0.08314120024442673,-0.07579902559518814,-0.08362685889005661,0.036697324365377426,0.12684038281440735,-0.020859528332948685,0.06440407782793045,-0.07766450941562653,-0.009664625860750675,0.03178805112838745,-0.009456763975322247,0.06471917033195496,0.0562620684504509,-0.08972987532615662,0.17650273442268372,0.025267532095313072,-0.04767487198114395,0.09125688672065735,0.06294745951890945,0.16549371182918549,0.0027423801366239786,0.1424434334039688,0.03381772339344025,-0.011978225782513618,-0.06347782909870148,-0.0031206717249006033,-0.008029657416045666,-0.04352942109107971,-0.05076193809509277,-0.04229646176099777,0.027794472873210907,-0.0752500370144844,0.05327767878770828,-0.08114589750766754,0.08078903704881668,-0.06311555951833725,-0.07140856981277466,-0.07834114134311676,0.024303199723362923,0.05855507776141167,0.08685161918401718,-0.10928764939308167,-0.06852586567401886,-0.06424788385629654,0.09025578200817108,0.0800710916519165,-0.003897865302860737,0.0004923140513710678,-0.02656003087759018,0.10935156047344208,0.09583017975091934,-0.09333815425634384,-0.07443726062774658,-0.05616656318306923,-0.019331859424710274,0.04335824400186539,0.07664535939693451,0.03607407584786415,0.04828524962067604,-0.06600996106863022,0.09058242291212082,0.01911764033138752,-0.09500563144683838,0.08874475955963135,0.01146495807915926,0.10753130167722702,-0.004482011776417494,0.03639078512787819,-0.024877015501260757,-0.1350768357515335,0.06351706385612488,-0.024467913433909416,0.0954100489616394,0.14042769372463226,0.06868593394756317,0.003848724067211151,0.13555970788002014,-0.017610721290111542,-0.10073406994342804,0.06290694326162338,-0.018221676349639893,-0.03735949844121933,0.024842850863933563,-0.09616194665431976,0.1589997410774231,0.09292422235012054,-0.011291183531284332,-0.19806210696697235,-0.0253643486648798,-0.005490192677825689,0.0021722810342907906,0.042953863739967346,0.010655631311237812,-0.007984503172338009,0.013006763532757759,-0.04773707687854767,0.04793868213891983,-0.04289010912179947,-0.0742960199713707,-0.0531768798828125,0.031343117356300354,0.06075603514909744,0.08418073505163193,-0.012066573835909367,-0.0005119193810969591,-0.10718236863613129,0.006364039145410061,-0.029060371220111847,0.03259560093283653,0.030634062364697456,-0.15294048190116882,-0.12530480325222015,-0.1585339903831482,-0.10739576071500778,-0.08216482400894165,0.12912525236606598,0.010357638821005821,-0.030952947214245796,-0.13315163552761078,-0.06876476109027863,-0.1811569184064865,-0.11696302145719528,-0.08541257679462433,-0.022675542160868645,-0.27197620272636414,-0.1327195167541504,-0.0038311034440994263,-0.09370651096105576,0.0040387362241744995,0.10337481647729874,0.05390476435422897,-0.03741682320833206,-0.08226750791072845,-0.022320708259940147,-0.04925914481282234,-0.11347635090351105,0.24372981488704681,0.043504755944013596,0.11045359075069427,-0.0045835841447114944,0.2260667383670807,0.1598232090473175,-0.060257863253355026,0.10334546864032745,0.07158540934324265,-0.006319914013147354,0.056219540536403656,0.0011988590704277158,-0.0020363875664770603,0.0077696628868579865,-0.06272591650485992,0.021218596026301384,0.0007553884061053395,0.08446770161390305,0.026486610993742943,-0.13478335738182068,0.1424849033355713,0.11488762497901917,0.0008705457439646125,0.08017442375421524,0.010961107909679413,0.12174039334058762,-0.015777617692947388,-0.012255159206688404,-0.15008732676506042,-0.11500910669565201,0.0022265445441007614,-0.027563486248254776,0.09262606501579285,-0.09958390891551971,-0.12926660478115082,-0.053264111280441284,5.729418626287952e-05,0.11416886001825333,0.08194389939308167,0.060386352241039276,-0.07504208385944366,0.07170257717370987,0.1047549620270729,-0.04827825352549553,0.005722217261791229,0.1045098826289177,-0.04929843544960022,-0.07990375906229019,-0.11582701653242111,0.005384397227317095,0.047930315136909485,0.0406116247177124,0.13426245748996735,0.01675994135439396,0.06798091530799866,0.08039151132106781,-0.0003367981407791376,-6.662921805400401e-05,-0.015449842438101768,-0.08207397162914276,-0.12781064212322235,0.04229988530278206,-0.009816041216254234,0.013438164256513119,0.06495661288499832,-0.018527749925851822,-0.06995528936386108,0.13096891343593597,-0.07173673063516617,-0.13064081966876984,-0.012799359858036041,0.012394127435982227,0.04556034505367279,0.06468182057142258,-0.03112080693244934,0.027096562087535858,-0.07072557508945465,-0.14015087485313416,-0.11683128029108047,-0.1605907678604126,0.044889625161886215,0.08435560017824173,0.05982798710465431,0.01312226802110672,-0.11396860331296921,0.01656995341181755,-0.06324306130409241,0.05865919589996338,0.06644358485937119,-0.007426179945468903,0.058178745210170746,-0.04232335090637207,-0.0512101985514164,0.04651590436697006,-0.015255041420459747,0.21839238703250885,-0.1844654679298401,0.13224263489246368,0.006092876195907593,0.05819372832775116,-0.07458345592021942,0.094064861536026,0.04701560363173485,-0.14630159735679626,0.01709369197487831,-0.1517888903617859,-0.06886600703001022,-0.02175152115523815,0.049816910177469254,0.026665396988391876,0.045919064432382584,0.076731838285923,-0.006100640166550875,-0.06908118724822998,0.15148930251598358,0.055123407393693924,0.037643011659383774,0.1441187858581543,-0.06379535794258118,-0.07730013132095337,-0.07181408256292343,0.06252481788396835,0.017582831904292107,0.04613816365599632,0.07546548545360565,0.04068392515182495,-0.04995910823345184,0.0130350012332201,-0.048476897180080414,0.03500072658061981,0.17856411635875702,0.05864271894097328,0.10766386985778809,-0.09028233587741852,0.08573140949010849,-0.0791720524430275,-0.03184378519654274,-0.0793478861451149,-0.07614794373512268,0.03677814453840256,0.07701633125543594,-0.0583200603723526,0.027145378291606903,-0.01268673688173294,-0.06691611558198929,-0.028575144708156586,-0.16341139376163483,0.08711504191160202,-0.07804252952337265,-0.008401144295930862,0.09176351130008698,-0.017505386844277382,0.06354998797178268,0.06598349660634995,0.04361186921596527,0.06701144576072693,0.09947521984577179,-0.038301270455121994,-0.12570533156394958,0.05203145742416382,0.045729272067546844,0.0931466817855835,0.12978194653987885,-0.14345324039459229,-0.12844906747341156,-0.03386126831173897,0.04138072952628136,-0.10621637850999832,0.09988074004650116,0.12420066446065903,-0.1235404908657074,-0.029969118535518646,0.014846820384263992,-0.055819302797317505,0.06949242204427719,-0.043354541063308716,-0.028216224163770676,-0.2105238139629364,0.0003182727668900043,-0.014494854025542736,-0.06040103733539581,-0.010331599041819572,0.053115133196115494,0.08007968217134476,-0.030379431322216988,-0.1355179101228714,0.0326499417424202,0.0366404727101326,-0.05879156291484833,-0.05574757605791092,-0.08819164335727692,0.07674906402826309,0.05832786113023758,0.09959156811237335,-0.1357746720314026,-0.09520994871854782,0.03952794149518013,0.04517359286546707,-0.1584681272506714,0.1393183022737503,-0.04517161101102829,0.06786975264549255,0.06736533343791962,0.11737742274999619,-0.033874526619911194,-0.05253374204039574,0.05647655203938484,0.0681195929646492,0.013930407352745533,0.08746016770601273,0.06655076891183853,0.0788700133562088,0.040683723986148834,0.058654867112636566,0.13195209205150604,-0.13095088303089142,0.04411797598004341,0.0019053751602768898,0.14722107350826263,-0.04989027976989746,0.1283784806728363,0.010785032995045185,0.07927053421735764,-0.02131657674908638,-0.006287230644375086,0.050207119435071945,0.04510372877120972,0.010545722208917141,-0.028613461181521416,-0.099246084690094,-0.006357208359986544,0.06391558796167374,0.1572621464729309,0.009866968728601933,0.1372784674167633,0.0035604387521743774,0.10091880708932877,0.04160032421350479,-0.05514388531446457,0.06189631670713425,-0.09844246506690979,0.07754821330308914,-0.03980422392487526,-0.007863841019570827,-0.10499903559684753,0.11339367181062698,0.005020898766815662,0.06142934039235115,0.07416050881147385,-0.10429376363754272,0.051350317895412445,0.06423299014568329,0.07046245783567429,-0.047743186354637146,-0.09288138151168823,0.05377298966050148,0.14774519205093384,0.027003487572073936,0.04638741537928581,-0.0550755150616169,0.04900685325264931,-0.10020725429058075,-0.04515824094414711,0.07813474535942078,0.08438635617494583,0.06718183308839798,-0.015101163648068905,-0.06475207954645157,-0.05959172919392586,-0.050735801458358765,0.0026547664310783148,-0.06293832510709763,-0.0733887255191803,0.06222248077392578,0.032675329595804214,0.01288280077278614,0.09983060508966446,0.004636326804757118,0.022663842886686325,0.08685926347970963,0.08843061327934265,-0.11007674038410187,-0.0081211281940341,0.006975940428674221,0.04616758972406387,0.06667081266641617,0.0050761401653289795,-0.025585629045963287,-0.05940081179141998,0.08216366916894913,0.08716105669736862,0.1595587134361267,0.08050676435232162,0.15384699404239655,-0.0571342334151268,-0.1448880434036255,-0.047993943095207214,-0.13273149728775024,-0.06287799775600433,0.05320585146546364,-0.07518508285284042,-0.1192065179347992,-0.1002078577876091,-0.059486500918865204,0.06397906690835953,-0.10354793816804886,-0.004356231540441513,-0.12970469892024994,-0.11579125374555588,0.056551024317741394,0.04010528326034546,0.07836507260799408,0.04494008049368858,0.007877899333834648,0.08038707077503204,0.0016281168209388852,-0.0944996252655983,-0.11325012147426605,-0.06335119158029556,0.021330762654542923,-0.06471532583236694,0.1065014973282814,-0.033399857580661774,-0.1411295086145401,0.007009999360889196,0.023028502240777016,-0.16480252146720886,-0.06980757415294647,0.09303576499223709,0.11753808706998825,-0.08970058709383011,0.07156924903392792,0.06851956248283386,-0.000566437840461731,0.01383877545595169,0.06257220357656479,-0.031097352504730225,-0.07990323007106781,0.005302257835865021,0.07013263553380966,0.10147397965192795,-0.029990771785378456,0.02700146846473217,-0.06712496280670166,-0.08823923021554947,-0.01388825848698616,0.021288620308041573,0.004932976793497801,0.011887582950294018,0.09672458469867706,-0.07474643737077713,0.037822090089321136,0.05370583385229111,-0.04687638580799103,0.031166205182671547,-0.03367271274328232,-0.12115215510129929,0.18071414530277252,-0.07585453242063522,-0.04185829684138298,-0.0760725736618042,0.049815062433481216,-0.062419306486845016,-0.03359922394156456,0.1099291443824768,0.060307443141937256,0.12146751582622528,0.18309825658798218,-0.10679539293050766,0.0009336831863038242,0.08411313593387604,0.07688048481941223,0.0396094024181366,-0.10943421721458435,0.002371622947975993,-0.09730794280767441,0.012213747017085552,0.09487257897853851,-0.0776272863149643,-0.033594343811273575,-0.18960565328598022,0.1455395519733429,0.10234201699495316,0.039604343473911285,-0.06597074866294861,-0.07220633327960968,0.07502054423093796,-0.09110701084136963,0.07741475850343704,-0.14273378252983093,-0.018742002546787262,-0.056181762367486954,-0.1489303559064865,0.06393670290708542,0.09922411292791367,0.08499849587678909,-0.19997422397136688,-0.03349311649799347,-0.06672579050064087,-0.06365017592906952,-0.17381320893764496,-0.1578770875930786,-0.21425150334835052,-0.004255218897014856,0.07500912249088287,-0.057851456105709076,-0.11133582144975662,0.15158089995384216,-0.0786684900522232,-0.10152610391378403,0.025511570274829865,0.0013331539230421185,0.013578616082668304,0.04741249233484268,-0.007347502745687962,-0.04952269420027733,0.11845167726278305,-0.18966250121593475,0.04479428008198738,-0.08776205033063889,-0.052443813532590866,0.12027749419212341,0.008663464337587357,0.03385443240404129,-0.12143310159444809,-0.10526537150144577,0.044964127242565155,-0.1381736397743225,0.004275865852832794,-0.0976812019944191,0.0377558209002018,-0.04626249521970749,0.006551094353199005,-0.024635784327983856,0.038918159902095795,0.04251309484243393,0.09441711753606796,-0.05560610443353653,0.05033338814973831,-0.010037150233983994,0.010180318728089333,0.08753394335508347,-0.1061963215470314,0.1305888444185257,-0.10862355679273605,0.17370115220546722,0.029471173882484436,-0.00763291772454977,-0.07481437921524048,-0.07066696882247925,-0.004994707182049751,-0.000846298411488533,-0.08993041515350342,-0.006247041746973991,0.0006035794503986835,0.0733305811882019,-0.07881136983633041,0.05261481925845146,-0.011231454089283943,0.09030210226774216,0.03529934585094452,-0.042758919298648834,-0.03556321933865547,-0.13553203642368317,0.07051900774240494,0.0411590151488781,0.10603839159011841,0.1507691591978073,0.08297519385814667,0.14303982257843018,0.015995856374502182,-0.04439140483736992,0.011044337414205074,0.15081219375133514,0.0983748733997345,0.05623074993491173,-0.08593592792749405,-0.08407044410705566,-0.08832196146249771,-0.032622549682855606,-0.0375673770904541,-0.07742968201637268,-0.06426635384559631,0.10073421150445938,0.09404005855321884,0.00551479309797287,-0.05894789844751358,0.004790142644196749,-0.05838464945554733,0.09432709962129593,-0.05828816443681717,-0.0766853541135788,0.05016489699482918,-0.00827608723193407,0.19841283559799194,0.05831152945756912,0.15610584616661072,-0.07522421330213547,-0.18359558284282684,0.02524794079363346,-0.03674490004777908,0.07147206366062164,-0.031048931181430817,0.03097950480878353,0.016343384981155396,-0.048366397619247437,-0.01765412837266922,0.04115527495741844,0.056609321385622025,-0.026251165196299553,-0.0012568107340484858,0.09673625230789185,0.015514434315264225,-0.03829141706228256,0.07313600927591324,0.03473983332514763,-0.0677432045340538,0.05812126770615578,0.052068378776311874,0.05796715244650841,-0.06969879567623138,0.07036799192428589,0.07264278829097748,-0.07679414749145508,-0.05364229902625084,0.05608372762799263,-0.01803741604089737,0.05174567550420761,0.16977012157440186,0.08874595910310745,0.0875527635216713,0.0778728798031807,0.08248094469308853,-0.06105584651231766,0.008017770946025848,0.07202146202325821,0.0039094905368983746,0.09917571395635605,0.06421229988336563,-0.1770753264427185,0.008893899619579315,0.01633331924676895,0.06547193974256516,0.07504761964082718,0.04539043828845024,0.10971076786518097,-0.1321030855178833,0.011922324076294899,-0.09301542490720749,-0.007511868141591549,0.08938116580247879,0.015813149511814117,-0.11327920854091644,-0.022453099489212036,0.044641003012657166,0.028786122798919678,-0.009118064306676388,0.04299573600292206,0.06406452506780624,0.08764132112264633,-0.04237063229084015,-0.14607088267803192,0.043152157217264175,0.0013301385333761573,-0.04967459291219711,0.0587279386818409,-0.05663994327187538,-0.0341595783829689,0.035711441189050674,0.03323809430003166,0.03400015830993652,-0.0572926327586174,0.007658467628061771,-0.029592204838991165,0.028293907642364502,-0.0013296343386173248,-0.032105736434459686,0.05790553614497185,-0.07866465300321579,0.04142806679010391,0.028903700411319733,0.03757897764444351,-0.09561847895383835,0.09127049893140793,-0.07051089406013489,-0.004740086384117603,-0.21122321486473083,0.0581715926527977,0.007008764892816544,0.13289938867092133,0.08798117935657501,0.06554071605205536,-0.07964620739221573,-0.03383827582001686,0.08866061270236969,-0.05381881445646286,0.15628595650196075,-0.04461072385311127,0.04763996973633766,-0.17478105425834656,0.022054510191082954,0.001058314461261034,0.11176761984825134,0.08663838356733322,-0.04591815546154976,-0.08703280240297318,-0.048572294414043427,-0.07118213921785355,0.024559058248996735,0.11103761196136475,0.03805309161543846,-0.16156628727912903,0.14370200037956238,0.24073058366775513,-0.05472441390156746,-0.1398521363735199,0.16023164987564087,-0.052743881940841675,-0.15842624008655548,-0.002938535064458847,0.1227814331650734,-0.012391380034387112,0.05502937734127045,0.13261760771274567,-0.030361291021108627,-0.14088121056556702,-0.14773140847682953,0.08379168063402176,-0.10275246202945709,0.046421416103839874,0.0063725486397743225,-0.00455833226442337,-0.05264772102236748,0.030394278466701508};
const  TPrecision conv2d_biases[] = {0.06774930655956268,0.10627083480358124,0.028290733695030212,0.02899773418903351,0.05617180094122887};
const  TPrecision dense_weights[] = {-0.08796578645706177,0.07495708763599396,-0.1284877508878708,0.012591330334544182,-0.03861735016107559,0.06300702691078186,-0.09182282537221909,0.03571837395429611,0.00043926574289798737,-0.056571196764707565,0.15105465054512024,0.008408418856561184,0.09466025233268738,0.042099859565496445,-0.09201715141534805,0.012749607674777508,0.06946124136447906,0.013819493353366852,0.08817685395479202,0.0858348086476326,0.06429493427276611,-0.08815748244524002,0.08718240261077881,-0.05665234848856926,-0.05097498744726181,0.02186828851699829,0.02103823609650135,0.09774497896432877,-0.077975332736969,0.10098732262849808,-0.035584136843681335,-0.07183022052049637,-0.012522812932729721,0.002203873824328184,-0.07145151495933533,0.03158305212855339,0.1192699670791626,0.051856160163879395,-0.04549827799201012,0.13139572739601135,-0.07599641382694244,0.1410190612077713,-0.014010013081133366,-0.09733743220567703,-0.08258107304573059,0.010951021686196327,0.03160810470581055,0.04172692447900772,-0.04903887212276459,0.029634594917297363,-0.09155470877885818,-0.014590720646083355,0.09730519354343414,0.009632541798055172,-0.09534403681755066,0.021805057302117348,0.00035701721208170056,0.0853191465139389,0.004918980412185192,-0.09839063882827759,0.0993335172533989,-0.044336527585983276,0.10507162660360336,0.09141198545694351,0.0649956688284874,0.0287307295948267,0.1012384369969368,-0.044405750930309296,0.032923828810453415,-0.044177670031785965,-0.10464706271886826,-0.09743891656398773,-0.05312957987189293,-0.017383558675646782,0.06388871371746063,-0.016068732365965843,-0.11845989525318146,-0.031200578436255455,0.03719902038574219,0.016611609607934952,0.10738879442214966,-0.08142836391925812,0.19022595882415771,0.008673170581459999,-0.030812356621026993,0.11744880676269531,0.030125971883535385,0.0004319468280300498,-0.022374890744686127,0.06756549328565598,0.008141346275806427,0.007098041474819183,0.02237996645271778,-0.14200393855571747,-0.10940466821193695,-0.11945939064025879,-0.05761753395199776,0.06254489719867706,0.008138036355376244,-0.09860178083181381,-0.03696153312921524,0.012166419066488743,0.07330778986215591,0.05834885686635971,0.020711757242679596,-0.11860930919647217,0.01006107684224844,0.15315227210521698,0.0817032903432846,0.0978374257683754,0.032928090542554855,0.05926097184419632,-0.012459571473300457,0.03958940505981445,-0.0447259321808815,0.05150759592652321,0.05874224007129669,0.0721898153424263,-0.0726759061217308,0.011959538795053959,0.02485242672264576,-0.004930004943162203,-0.0895785391330719,-0.03247106075286865,0.02934410236775875,0.11924102902412415,-0.04823623597621918,0.0716547742486,-0.05591181665658951,-0.03341267257928848,0.12473050504922867,-0.04825339838862419,0.007161930203437805,-0.03368807211518288,-0.04796663299202919,-0.017281776294112206,0.007698461413383484,-0.06354963779449463,-0.04725179448723793,-0.03282446041703224,0.06486242264509201,-0.09903229027986526,-0.04347248747944832,-0.04182944446802139,-0.0033098396379500628,-0.049360491335392,-0.02134949341416359,0.1365201622247696,0.061318524181842804,0.07280255109071732,0.019671985879540443,-0.026777978986501694,0.015523931942880154,-0.015145861543715,-0.01044603530317545,-0.0794982761144638,0.05011964589357376,0.06191761791706085,0.012371283024549484,-0.10021928697824478,0.09607013314962387,0.03454124182462692,-0.022512299939990044,-0.07273523509502411,-0.04586290568113327,0.08446294069290161,0.08821727335453033,-0.015104155987501144,0.0021133385598659515,0.22938832640647888,-0.030816977843642235,-0.09370411187410355,-0.048430029302835464,-0.08945851773023605,0.09082900732755661,-0.052030857652425766,-0.005518877878785133,-0.092824786901474,-0.0010305396281182766,-0.11858196556568146,-0.048709429800510406,0.028218062594532967,-0.03236407786607742,-0.012887539342045784,-0.006608937401324511,0.024896804243326187,-0.16759808361530304,0.0478973425924778,0.03834196552634239,0.06772342324256897,-0.05307244136929512,-0.0015237830812111497,-0.021149100735783577,0.08987928926944733,-0.07463877648115158,0.003506137290969491,0.103201724588871,-0.027934812009334564,-0.10411890596151352,-0.12539100646972656,0.030929869040846825,-0.01879342459142208,0.15796469151973724,-0.007170997094362974,-0.04326252266764641,-0.006684860680252314,-0.0723898857831955,0.014617584645748138,-0.13262899219989777,-0.11216497421264648,0.06916928291320801,0.07307121902704239,0.026210814714431763,-0.04771234467625618,0.0032502668909728527,0.10704007744789124,-0.040041763335466385,0.007547286339104176,0.03163958340883255,-0.05849608778953552,-0.05741069093346596,-0.08358759433031082,0.17699269950389862,0.0649014413356781,-0.03890226408839226,-0.030812537297606468,0.006151794921606779,-0.012128535658121109,-0.04585954174399376,0.00688914954662323,0.053430136293172836,-0.07788500934839249,-0.11923602968454361,0.061244428157806396,-0.041482262313365936,0.058346666395664215,0.01595008186995983,-0.040076833218336105,0.005315357353538275,-0.041285090148448944,0.05616290494799614,0.16820017993450165,0.07400278002023697,0.01053336076438427,-0.05710833892226219,0.034793827682733536,-0.008652796037495136,0.008238748647272587,-0.10389157384634018,-0.11267314106225967,0.06071517989039421,-0.0559622161090374,0.0250958651304245,0.023398052901029587,0.06898564845323563,0.1306847184896469,0.011819788254797459,0.023017805069684982,-0.0201434139162302,-0.06801152974367142,-0.014951574616134167,0.09553968906402588,0.0401473231613636,0.015132742933928967,0.022717010229825974,0.030455894768238068,0.03884207457304001,-0.018026720732450485,0.12732304632663727,0.0896185114979744,0.038112420588731766,0.004299493040889502,0.05511488765478134,0.005192446522414684,0.03940645605325699,0.10610713064670563,-0.07988844811916351,-0.14771847426891327,-0.01037288736552,0.09608419239521027,0.17364223301410675,-0.012910538353025913,-0.10805569589138031,-0.0395207405090332,0.0019568547140806913,0.18523122370243073,0.1309725046157837,-0.12358497083187103,0.016275115311145782,0.053217120468616486,0.016147447749972343,0.08922424167394638,-0.06797768175601959,0.03470500186085701,0.007559617981314659,0.051281508058309555,-0.05256619676947594,0.0838203877210617,-0.10199272632598877,-0.15617583692073822,-0.05843984708189964,0.10487845540046692,0.04535428062081337,0.0667545348405838,-0.0945434421300888,-0.04643040522933006,-0.05441002547740936,0.06970000267028809,-0.025288229808211327,-0.04642188549041748,0.06519868969917297,-0.09903964400291443,0.12928350269794464,-0.16925588250160217,0.06932058185338974,0.20397146046161652,0.009332203306257725,0.013607002794742584,0.11230439692735672,-0.0757969319820404,-0.02828545868396759,0.06133970245718956,0.12145906686782837,0.07530636340379715,0.13552716374397278,-0.010835451073944569,0.03513995558023453,-0.021870288997888565,-0.019016390666365623,-0.0821961760520935,0.12456159293651581,0.01878940872848034,-0.021454177796840668,0.07824205607175827,0.015321261249482632,0.0831868052482605,0.0735931545495987,-0.03925355151295662,0.005459310952574015,-0.025583839043974876,0.10530947893857956,-0.030530480667948723,0.1149347648024559,0.10710788518190384,-0.08252479135990143,-0.1078278198838234,0.009410563856363297,0.04980893060564995,-0.08128868043422699,0.02704707719385624,0.05351744964718819,0.03751620650291443,0.0020936604123562574,-0.027590781450271606,0.047636959701776505,-0.060004543513059616,-0.12055826187133789,-0.1876426786184311,0.08236175775527954,-0.1247556135058403,0.13771936297416687,0.024501260370016098,0.12404067814350128,0.09213168919086456,0.08887550234794617,0.07524091005325317,-0.10335281491279602,-0.14183157682418823,-0.11747265607118607,0.013753626495599747,0.02547973021864891,0.02307656593620777,-0.03615483269095421,0.00862498115748167,0.08113890886306763,-0.11862264573574066,0.05832625925540924,0.02260347083210945,0.06916108727455139,-0.04627419263124466,-0.02055450715124607,-0.10862071067094803,-0.08259475976228714,-0.049358732998371124,-0.16774135828018188,-0.07191788405179977,-0.0020025658886879683,0.08783421665430069,0.11536958813667297,0.03944830223917961,0.011345804668962955,-0.09539013355970383,0.014670787379145622,-0.014955972321331501,-0.16120971739292145,-0.11719834059476852,-0.11156334728002548,0.06625572592020035,0.07402064651250839,0.11555924266576767,-0.06857486814260483,0.12484677135944366,0.09511514753103256,0.048659708350896835,0.03884745016694069,-0.019061755388975143,0.13856448233127594,-0.05435784533619881,0.003404452931135893,-0.06441619247198105,-0.07905639708042145,-0.029636047780513763,0.0036166582722216845,-0.02367592416703701,-0.04379453510046005,-0.052443694323301315,-0.05694843456149101,-0.058053456246852875,0.14613929390907288,0.09548729658126831,-0.12225037068128586,0.07242924720048904,0.08417795598506927,-0.21971826255321503,-0.12244991958141327,0.05555954575538635,0.016023928299546242,0.11047425121068954,0.08804495632648468,-0.08148931711912155,0.125844806432724,-0.042785536497831345,-0.0005777558544650674,0.06421343982219696,0.09651544690132141,0.1453627049922943,-0.051318809390068054,0.00999313686043024,-0.023459985852241516,0.06865553557872772,-0.16715078055858612,-0.0928560346364975,0.07393307238817215,0.09269122034311295,-0.06674791872501373,-0.09047071635723114,-0.10515382885932922,-0.047002822160720825,0.16882573068141937,-0.039302874356508255,0.152975395321846,-0.006798062939196825,0.11552434414625168,-0.03253602981567383,0.025037530809640884,0.1406039297580719,0.004292791709303856,-0.023123368620872498,-0.12019321322441101,-0.09184421598911285,-0.005763804540038109,-0.02667258307337761,0.07196097820997238,-0.039116036146879196,0.152896910905838,-0.14762704074382782,-0.0325813964009285,-0.13762661814689636,0.0009270174195989966,0.14892274141311646,0.021557429805397987,-0.0029642274603247643,0.20648999512195587,-0.09826734662055969,-0.09588827192783356,0.16930215060710907,-0.061338577419519424,-0.0842798501253128,0.0031195629853755236,-0.07301110774278641,0.029316380620002747,-0.03323645144701004,-0.010164352133870125,0.029033135622739792,-0.014652748592197895,-0.08893463760614395,-0.022396845743060112,0.07163345068693161,0.01495594996958971,-0.05244850739836693,0.023820849135518074,0.12310516834259033,-0.027964942157268524,-0.0449107326567173,-0.04268766567111015,-0.15731187164783478,-0.1136101633310318,-0.03971387818455696,-0.02350219152867794,0.2575334906578064,-0.06136481091380119,0.06026994064450264,-0.007646950893104076,0.0743284597992897,-0.1515171229839325,-0.15253445506095886,-0.050990164279937744,0.12188586592674255,-0.012132111005485058,0.047236256301403046,-0.061126865446567535,0.021257001906633377,0.027086719870567322,-0.14169424772262573,-0.025419263169169426,-0.08155270665884018,0.03755759820342064,0.1442272961139679,0.11699868738651276,-0.0948692336678505,0.04293890297412872,-0.12997356057167053,0.15050697326660156,0.024846723303198814,0.042704738676548004,0.049060773104429245,0.029190732166171074,-0.03282998502254486,-0.051197368651628494,-0.04296774044632912,-0.07347490638494492,-0.04446683079004288,-0.03290224447846413,0.0015524168265983462,-0.11530569195747375,0.03564406931400299,0.052332691848278046,0.047249481081962585,-0.017757916823029518,0.1617906093597412,0.013382205739617348,0.005538527388125658,-0.02378953993320465,0.012810208834707737,-0.0887158140540123,0.038375478237867355,-0.05079454556107521,-0.12366458028554916,-0.10966946929693222,-0.15637202560901642,0.005581903271377087,0.11380761861801147,-0.061894290149211884,0.0011487972224131227,0.004186392296105623,-0.04041333869099617,-0.04726142808794975,0.0031536014284938574,0.08780412375926971,-0.011768752709031105,-0.05639660358428955,-0.1195484846830368,-0.043579597026109695,0.03623159974813461,-0.07029614597558975,-0.021820632740855217,0.027435127645730972,-0.07953736931085587,0.025686252862215042,-0.023891590535640717,0.0661739856004715,-0.12007720023393631,-0.07451259344816208,-0.0033560728188604116,-0.05408290773630142,-0.04120400547981262,-0.032857123762369156,0.05554451420903206,-0.10922929644584656,0.050406694412231445,-0.04272672161459923,0.06877748668193817,-0.014765637926757336,-0.057030417025089264,0.03464103490114212,0.08934497833251953,-0.029834063723683357,0.048096589744091034,-0.010945708490908146,6.162401405163109e-06,0.09132951498031616,0.0016063066432252526,0.09667482227087021,-0.061269354075193405,0.021557610481977463,0.034886617213487625,0.16092973947525024,-0.04335646331310272,-0.04461722820997238,0.11680722236633301,0.09953512996435165,-0.0218900628387928,0.031822774559259415,0.0013331323862075806,0.1728949248790741,0.04941119998693466,0.023412954062223434,-0.11589976400136948,0.10890204459428787,-0.01638525351881981,-0.009715649299323559,0.05034608021378517,-0.03386690095067024,-0.0031933302525430918,-0.09758374094963074,0.01110867690294981,0.06236797943711281,-0.014772479422390461,0.036003902554512024,0.10495033115148544,0.035696811974048615,-0.12639018893241882,-0.059486024081707,-0.008195320144295692,-0.10232007503509521,0.03697545826435089,-0.005729480180889368,0.035726238042116165,-0.03132208064198494,0.02350073680281639,-0.13120390474796295,0.05841495096683502,0.009769185446202755,-0.021824480965733528,0.027020379900932312,0.03923874720931053,-0.12495515495538712,0.06920616328716278,0.006525776349008083,0.04940178990364075,-0.020585913211107254,0.04897332191467285,0.08948095887899399,0.021655645221471786,0.03315771371126175,-0.10718366503715515,-0.012214253656566143,0.08259598165750504,-0.0388396792113781,-0.060679398477077484,-0.05976886302232742,-0.11124797910451889,-0.03780878335237503,0.029462873935699463,0.06741863489151001,-0.008829857222735882,-0.01815853640437126,-0.06286688894033432,0.029751544818282127,-0.11170099675655365,0.07779113948345184,-0.09776230156421661,-0.009599052369594574,0.11597040295600891,0.04226323962211609,0.003929854836314917,0.0798136442899704,-0.024418024346232414,0.0504973828792572,-0.13851161301136017,0.0391644649207592,0.028466133400797844,-0.04422365874052048,-0.011623868718743324,0.0005824247491545975,0.0005620787851512432,0.020879089832305908,-0.09127043187618256,-0.06254104524850845,0.03411693498492241,0.06642868369817734,-0.10753404349088669,0.04624972864985466,0.05099691450595856,-0.03687791898846626,0.0436549186706543,-0.023937245830893517,0.015639498829841614,-0.0034683826379477978,-0.09117330610752106,0.10308565944433212,-0.16455726325511932,-0.006670857314020395,-0.08830942958593369,0.027354108169674873,-0.0012372266501188278,0.06483399868011475,0.112904392182827,-0.04124712198972702,-0.10604153573513031,-0.011690023355185986,-0.12201487272977829,0.1891118586063385,0.017053958028554916,0.014031435362994671,-0.1857706606388092,0.010569121688604355,-0.06819285452365875,0.020958077162504196,0.005347864702343941,-0.04586562141776085,0.0005909704486839473,0.05175319314002991,0.02053101360797882,0.054526202380657196,-0.03549928218126297,-0.031202564015984535,0.025325197726488113,-0.010202441364526749,-0.1001119539141655,-0.05345300957560539,0.07176046818494797,-0.09685492515563965,-0.08981823176145554,-0.1267489492893219,0.030753780156373978,-0.03686511889100075,-0.09004618227481842,-0.025754982605576515,-0.0010527301346883178,-0.07990623265504837,-0.06459806859493256,-0.03281639888882637,0.0010567933786660433,-0.07811813056468964,0.0345672182738781,-0.07261579483747482,0.08530417084693909,-0.16573329269886017,-0.037067510187625885,0.11244446039199829,0.003038369584828615,-0.030942309647798538,0.011947986669838428,-0.16168920695781708,-0.084182508289814,-0.0032203886657953262,0.0018499919679015875,0.033082038164138794,-0.0851869210600853,-0.0611000694334507,-0.06751904636621475,0.013610939495265484,0.09433750808238983,-0.015757916495203972,-0.12744936347007751,0.01129080168902874,-0.02651432901620865,-0.1118035763502121,-0.028611797839403152,0.0896463394165039,0.04139871895313263,0.08514285087585449,0.012021167203783989,-0.020921537652611732,-0.009333251044154167,0.06650463491678238,-0.07873434573411942,0.05823449417948723,0.008467469364404678,-0.036316972225904465,0.03981936722993851,0.029599111527204514,0.005486376583576202,-0.06406430155038834,-0.08253813534975052,-0.06846671551465988,0.004707253072410822,-0.059654369950294495,0.03702893108129501,-0.07005997747182846,0.0034111870918422937,0.06566591560840607,0.06902073323726654,-0.05229994282126427,-0.08854661881923676,0.07004614174365997,-0.11582372337579727,0.03595596179366112,-0.07963873445987701,-0.008072247728705406,-0.0456891804933548,-0.10193357616662979,-0.011430710554122925,-0.0072446344420313835,-0.09306296706199646,0.04968665912747383,-0.010343583300709724,0.02352840080857277,-0.01387845166027546,0.052187737077474594,-0.04622313007712364,-0.13219283521175385,0.07270019501447678,-0.0738198459148407,-0.15145649015903473,-0.07041901350021362,-0.06398873031139374,0.025344502180814743,-0.042919356375932693,0.07149638235569,0.004946433939039707,-0.03691741079092026,-0.04682367295026779,0.06430669873952866,-0.0464908629655838,-0.01984519697725773,0.011756588704884052,0.05768982321023941,-0.041649091988801956,0.07255243510007858,0.11399831622838974,0.05351661518216133,-0.06771384924650192,0.09984628111124039,-0.04017024487257004,-0.012399584986269474,0.03630584850907326,-0.10816121101379395,0.0723564550280571,-0.11054828763008118,-0.03204430267214775,-0.014637140557169914,-0.12086387723684311,-0.10570314526557922,0.10741855204105377,0.04052365571260452,0.0404822900891304,-0.1111084446310997,0.14748558402061462,-0.03134727478027344,-0.0856938436627388,-0.008643040433526039,0.034523855894804,-0.04804617166519165,-0.0998549610376358,0.0379255972802639,-0.09769178926944733,-0.07612970471382141,0.06781809031963348,-0.012490391731262207,0.025242557749152184,-0.10008310526609421,-0.03320705518126488,0.10118274390697479,0.07774163037538528,0.005068349186331034,0.046111032366752625,-0.05576943978667259,0.016067298129200935,-0.08847392350435257,0.059900250285863876,-0.014517112635076046,-0.12488675862550735,0.006933082360774279,0.036194946616888046,0.12518905103206635,0.040077075362205505,-0.035750117152929306,-0.04896669089794159,-0.06370531022548676,-0.05309031903743744,-0.039220623672008514,-0.041326943784952164,-0.08956297487020493,0.06056131049990654,-0.04481004178524017,0.06196067854762077,-0.00845335889607668,-0.01766142249107361,0.06225740909576416,-0.08590883016586304,-0.014899477362632751,-0.08086049556732178,0.02821769006550312,0.05669369176030159,0.03133904188871384,-0.00805539172142744,-0.012537572532892227,0.030934292823076248,-0.14567016065120697,-0.04858219251036644,0.06056826561689377,-0.01698560081422329,0.06468585878610611,-0.09561538696289062,0.06522747874259949,0.14378727972507477,0.032292332500219345,-0.0055822571739554405,-0.007100946269929409,0.07764899730682373,-0.09957129508256912,-0.006718818098306656,0.09013621509075165,-0.09020159393548965,-0.01853678934276104,0.07289402186870575,-0.018142199143767357,-0.007047651335597038,0.050621505826711655,-0.03931742534041405,0.0009228465496562421,-0.00561577407643199,0.0548207052052021,0.10322955250740051,0.09259025752544403,-0.03716229647397995,-0.06729964166879654,-0.04033935070037842,-0.029963640496134758,-0.028092851862311363,0.17254704236984253,0.013313059695065022,0.09073290228843689,0.05754811689257622,-0.07009347528219223,-0.17296865582466125,-0.03775497525930405,-0.08466677367687225,0.08620031923055649,-0.05253219231963158,-0.012057648040354252,0.01359635405242443,0.14954353868961334,0.04982193931937218,-0.0677853524684906,0.012489845044910908,-0.011673159897327423,-0.14551997184753418,-0.00505385035648942,-0.007961663417518139,-0.011868356727063656,-0.03869849815964699,0.01874588057398796,-0.08147899806499481,0.026682253926992416,0.0289846733212471,-0.10388675332069397,0.01971851848065853,-0.05052407458424568,0.028080523014068604,0.0562230609357357,0.05897374823689461,0.002229733392596245,0.06861747056245804,0.07472292333841324,0.040314022451639175,-0.06886868178844452,-0.036299701780080795,0.04046303778886795,0.02110522985458374,-0.03425225988030434,-0.03128509223461151,-0.1178140789270401,0.1146852895617485,0.0010507203405722976,0.11806461960077286,-0.019867511466145515,-0.06646925210952759,-0.056509196758270264,-0.04963050037622452,0.037096500396728516,0.0832124873995781,-0.021525563672184944,0.042730823159217834,0.11779630929231644,0.012974563054740429,-0.015167497098445892,0.08887623250484467,0.005775037221610546,0.09430792927742004,-0.008184363134205341,-0.051772963255643845,0.005008575040847063,0.044339124113321304,0.09654124826192856,-0.11090382933616638,-0.06935738027095795,0.0021328055299818516,-0.12183277308940887,-0.08690234273672104,-0.016788044944405556,-0.065819650888443,0.032545898109674454,-0.07361841946840286,-0.0969068855047226,0.008293668739497662,0.08177300542593002,-0.038405291736125946,-0.012131745927035809,-0.03483836352825165,-0.02334361895918846,-0.07724948227405548,0.08945728093385696,-0.04249288886785507,-0.06701021641492844,-0.10858220607042313,0.09687764197587967,-0.023986252024769783,-0.0748850405216217,-0.03842238709330559,0.004312200006097555,0.0030557187274098396,0.02532268315553665,-0.029046691954135895,-0.09910865873098373,-0.019822001457214355,-0.03848225995898247,-0.15863977372646332,-0.015756215900182724,0.011557083576917648,0.028130371123552322,0.05486002191901207,-0.0015119481831789017,0.004487602971494198,-0.02817312628030777,0.09319638460874557,0.0289164911955595,-0.10742690414190292,-0.0015624461229890585,0.020310120657086372,-0.0882839486002922,-0.005447095260024071,0.0024609065148979425,0.08122174441814423,0.005908813327550888,0.06519071012735367,0.03312122821807861,0.04708828404545784,-0.06297057867050171,0.04147407039999962,-0.09948110580444336,0.06859191507101059,-0.00787352118641138,0.062392815947532654,-0.04373127594590187,0.028018131852149963,-0.03261271119117737,0.07788335531949997,0.05416090041399002,-0.10129089653491974,0.020230043679475784,0.04131723567843437,0.12287019938230515,-0.05416344851255417,-0.009537266567349434,-0.07259312272071838,-0.047706399112939835,-0.06982634216547012,0.007576564326882362,-0.07918163388967514,0.04836828634142876,0.017058150842785835,0.015439541079103947,-0.02428520657122135,0.050445206463336945,0.11121361702680588,0.0051672267727553844,0.07207676023244858,-0.051029931753873825,-0.059943970292806625,-0.06487994641065598,-0.07983363419771194,-0.01586299017071724,0.013647668994963169,-0.04697415605187416,-0.029126983135938644,0.06014568731188774,0.07002022117376328,-0.04874681308865547,0.008053348399698734,-0.09132158011198044,0.03736498951911926,-0.05535883456468582,0.08202603459358215,0.014193437062203884,-0.0030458278488367796,0.18926593661308289,-0.025308873504400253,-0.009186197072267532,-0.07185038924217224,0.04360426589846611,0.0704943835735321,0.05447126552462578,0.14363011717796326,-0.08681638538837433,-0.06972110271453857,-0.08910897374153137,-0.007819169200956821,0.032690759748220444,0.023114139214158058,-0.08747725933790207,-0.024634776636958122,0.030665574595332146,-0.09354904294013977,-0.10967671126127243,-0.03951062262058258,-0.1301860511302948,-0.1200050339102745,0.04219339042901993,-0.11247376352548599,0.055640507489442825,0.02807747572660446,-0.07175451517105103,0.10540333390235901,-0.15813462436199188,0.07685115933418274,-0.007879449985921383,-0.010904773138463497,0.08218564838171005,0.02697606198489666,-0.00410307664424181,-0.1231083944439888,0.02167331986129284,-0.08948376029729843,0.07899130135774612,-0.023442212492227554,-0.007704508025199175,-0.07501986622810364,-0.049691539257764816,0.0798041969537735,0.15489117801189423,-0.15729251503944397,0.02959536202251911,-0.12358159571886063,-0.07200755178928375,-0.12412683665752411,0.0273891631513834,-0.11475533992052078,-0.034803882241249084,-0.030237261205911636,0.06485899537801743,-0.0890924260020256,-0.0594782717525959,0.03778323903679848,0.053767479956150055,0.009678501635789871,-0.09245282411575317,-0.013911129906773567,-0.024332953616976738,-0.04873465374112129,-0.02072942815721035,-0.036758456379175186,-0.11912965029478073,0.06751421093940735,-0.04954381659626961,-0.017598118633031845,0.005307974759489298,0.03346012160181999,-0.05532214790582657,-0.08703597635030746,-0.09060157090425491,-0.13916827738285065,-0.08503421396017075,0.07602125406265259,-0.03582536056637764,0.043176982551813126,-0.0027786013670265675,-0.09425271302461624,-0.11301696300506592,0.07998392730951309,-0.021284490823745728,-0.13582360744476318,0.025930380448698997,0.016361774876713753,-0.0011896028881892562,-0.08568884432315826,-0.037546902894973755,0.053351063281297684,-0.08719628304243088,0.07318232208490372,0.05362921953201294,-0.0835689827799797,-0.018036942929029465,-0.054907746613025665,0.10418204218149185,0.04157622531056404,-0.0689551830291748,0.07402171194553375,-0.03606130927801132,-0.066246896982193,0.010864944197237492,-0.016142472624778748,-0.10943492501974106,-0.08467920124530792,-0.055492594838142395,0.016552386805415154,-0.04510964825749397,0.027059748768806458,0.06012387573719025,-0.03772915154695511,0.15293782949447632,-0.040146902203559875,0.011643261648714542,-0.04244885966181755,0.1376343071460724,-0.024539709091186523,0.05871395394206047,-0.05377781018614769,-0.0007441953639499843,-0.02228452078998089,-0.078069306910038,0.10671286284923553,-0.051502060145139694,-0.06016470864415169,-0.06065426394343376,0.0191428791731596,0.03324638679623604,-0.007800442632287741,-0.048605382442474365,-0.06342652440071106,0.027665259316563606,-0.07653409242630005,-0.006720916833728552,-0.1026172861456871,-0.04246195778250694,-0.039093274623155594,0.05145614221692085,-0.0025396072305738926,0.04163150489330292,0.03697774559259415,0.003948499448597431,-0.1313025802373886,-0.12642493844032288,-0.15555590391159058,-0.012414488941431046,-0.10684210062026978,0.06031795218586922,-0.09064865112304688,-0.025427069514989853,-0.05934543162584305,-0.10460817813873291,-0.05378677695989609,0.052123621106147766,-0.1116611585021019,-0.040148455649614334,0.05866796523332596,-0.031219806522130966,-0.013804389163851738,-0.027638182044029236,-0.013312006369233131,0.08963218331336975,-0.01825200393795967,0.0232443418353796,0.019860457628965378,0.06538907438516617,-0.0649089440703392,-0.15109439194202423,0.09294647723436356,-0.053363069891929626,0.00856699701398611,-0.09768034517765045,0.012952953577041626,0.10881093889474869,-0.09351170063018799,-0.016913972795009613,-0.0836438313126564,-0.03177143633365631,-0.038647621870040894,-0.02068016678094864,0.06196487694978714,-0.15522834658622742,-0.07184316962957382,-0.05948888137936592,-0.06477423757314682,-0.01305057480931282,-0.033159781247377396,-0.08300497382879257,-0.0190401840955019,-0.023670975118875504,0.020419402047991753,-0.10261940211057663,0.0728825256228447,0.03436015546321869,0.007478558924049139,-0.09048066288232803,0.00208861380815506,-0.07147175818681717,-0.11639159172773361,-0.0010657209204509854,-0.067225880920887,-0.02692815102636814,0.025905543938279152,-0.005822859704494476,-0.004514898173511028,0.09400684386491776,0.03464038670063019,0.006844124756753445,0.08052485436201096,0.07396066933870316,-0.1347808986902237,0.01535340677946806,0.027183908969163895,-0.012970823794603348,0.10514117032289505,-0.081988625228405,0.044529203325510025,-0.03461635112762451,-0.018756728619337082,-0.03632329776883125,-0.03316287323832512,0.07879216969013214,-0.017605438828468323,-0.0012751951580867171,0.020787803456187248,0.1033589318394661,-0.025636015459895134,-0.0666290745139122,0.09374650567770004,0.05620613321661949,-0.04885510727763176,-0.036070484668016434,0.04750843718647957,-0.10353587567806244,0.10315779596567154,-0.031795989722013474,-0.1285976618528366,-0.0026987867895513773,0.04887930303812027,-0.0615471787750721,0.04031664878129959,-0.08528871089220047,0.06191089749336243,-0.09559111297130585,0.017264792695641518,-0.043284326791763306,0.05708993226289749,-0.051212962716817856,0.017100322991609573,-0.04769764095544815,-0.059649884700775146,-0.015242481604218483,0.06353424489498138,-0.060079339891672134,0.05130014196038246,0.024466874077916145,-0.011992519721388817,0.025310302153229713,0.002215468790382147,-0.1007259264588356,0.008706950582563877,0.05230708047747612,-0.07039088755846024,0.01821432076394558,-0.042276181280612946,-0.03304031118750572,-0.2206043004989624,-0.1291675716638565,-0.0246600154787302,0.10313338786363602,0.03818973898887634,-0.08033916354179382,0.11397750675678253,-0.10705646872520447,0.05889883637428284,-0.04731224104762077,0.027996757999062538,-0.04253600910305977,-0.1690208613872528,0.02589084394276142,-0.060875359922647476,0.02902304194867611,0.029789999127388,0.09786486625671387,0.028840184211730957,0.08750719577074051,0.03783782199025154,0.032809264957904816,-0.08424536883831024,0.0330563522875309,0.14242565631866455,0.07872816920280457,-0.059871092438697815,0.1274050623178482,0.018730945885181427,-0.032558079808950424,-0.12991167604923248,-0.011696419678628445,-0.012868820689618587,-0.10901494324207306,-0.09331071376800537,-0.019402705132961273,-0.012691850773990154,0.016772564500570297,0.09231191873550415,0.022188792005181313,0.015308580361306667,0.005976295564323664,-0.013372098095715046,0.06690563261508942,0.04713653400540352,-0.020685207098722458,0.023982420563697815,-0.01888207159936428,-0.07381364703178406,-0.16180837154388428,0.03252571076154709,-0.0955105721950531,-0.05129246413707733,-0.1303485482931137,0.0427916944026947,-0.07609915733337402,-0.02900508977472782,0.006133586168289185,-0.10242901742458344,-0.15667666494846344,-0.02452576905488968,-0.0838298350572586,-0.00887385942041874,0.008967802859842777,-0.11397556960582733,0.044100724160671234,-0.04210782051086426,-0.13149403035640717,-0.05809618532657623,0.005910605192184448,-0.01915188692510128,0.0005631732637993991,-0.07057568430900574,-0.14859271049499512,-0.08798392862081528,0.014035561122000217,0.009608552791178226,0.08467312902212143,-0.03179267421364784,0.05393785983324051,-0.056771621108055115,0.10094693303108215,0.00899485033005476,0.10355514287948608,0.08467580378055573,0.07320359349250793,0.13831980526447296,-0.008954647928476334,0.055930543690919876,-0.07830994576215744,-0.024153420701622963,-0.05277281254529953,0.11339621245861053,0.0007749873911961913,0.03205927088856697,0.0004212537605781108,-0.001036468194797635,0.06850297749042511,-0.019539833068847656,-0.09924421459436417,0.10461805760860443,-0.07201220095157623,0.06159159913659096,-0.07015387713909149,0.07221400737762451,-0.06298469752073288,0.02599613554775715,0.04976648837327957,0.1460924744606018,0.10764084756374359,-0.0694403126835823,0.08605138957500458,-0.0631660744547844,0.0638105496764183,-0.10430712252855301,-0.0856080874800682,0.0528351329267025,-0.03399253264069557,0.15652316808700562,0.039016444236040115,-0.05509154498577118,-0.0003108965465798974,0.05475883185863495,0.012250253930687904,-0.09617625921964645,0.03867460414767265,-0.022456558421254158,0.030594753101468086,0.05787965655326843,-0.09552212059497833,-0.0025254404172301292,-0.14655950665473938,0.04530913010239601,-0.005865324754267931,0.0758567601442337,-0.059902600944042206,-0.1006380096077919,0.10236335545778275,-0.0071784271858632565,-0.005251691211014986,-0.028317192569375038,0.040862489491701126,-0.05280660465359688,-0.14745734632015228,-0.0626581460237503,-0.05221150442957878,0.048193227499723434,-0.07847464084625244,0.014979681000113487,0.15414805710315704,0.07181935757398605,0.0498327799141407,0.06840159744024277,0.056752219796180725,-0.10650332272052765,0.016335783526301384,0.04349842667579651,-0.010764584876596928,0.11669124662876129,0.1586315929889679,0.13643278181552887,-0.05760342255234718,-0.012565936893224716,-0.04943527281284332,-0.10110326111316681,0.08109484612941742,-0.007550821173936129,0.03975438326597214,0.09943253546953201,-0.08678987622261047,-0.11904764175415039,0.0642012357711792,-0.07698851823806763,-0.21409079432487488,-0.04384627565741539,-0.15914221107959747,0.08466200530529022,-0.09367440640926361,0.13030660152435303,-0.013197158463299274,0.06014366075396538,-0.04417440667748451,-0.12537944316864014,0.0912749171257019,-0.04150740057229996,-0.10497918725013733,-0.06691628694534302,0.028885511681437492,-0.09651372581720352,-0.08711209893226624,-0.01865130476653576,-0.04758034273982048,-0.16054914891719818,0.07748058438301086,0.014056247659027576,0.12095901370048523,-0.11380156874656677,-0.0004876915772911161,0.12383528053760529,-0.22044558823108673,0.04845263808965683,0.012311386875808239,-0.11234225332736969,0.08286584913730621,-0.010936408303678036,0.13201475143432617,-0.08829741925001144,-0.04031113535165787,0.03766844794154167,-0.08109711110591888,0.1099676713347435,0.13830406963825226,-0.006842152215540409,-0.049929119646549225,-0.02488715760409832,-0.11583201587200165,0.05103364959359169,0.04700304567813873,-0.05487963929772377,-0.09478583931922913,-0.040814273059368134,0.10119115561246872,-0.005032666027545929,0.109880730509758,-0.063624307513237,0.07785143703222275,-0.11397106945514679,0.05537213757634163,0.022547688335180283,-0.05755935236811638,-0.11002480238676071,0.11954973638057709,0.04002276062965393,0.05219675600528717,-0.05712273344397545,0.0897420346736908,-0.05441254377365112,0.15924620628356934,0.027369732037186623,0.08698485791683197,0.0243359487503767,-0.11176338791847229,-0.0628437027335167,0.006566538941115141,-0.04091396555304527,0.06293497234582901,0.13687941431999207,0.10680871456861496,-0.09936322271823883,-0.056448038667440414,0.004399753641337156,0.02247415855526924,-0.06986048072576523,-0.033224135637283325,0.002146346727386117,0.0013261681888252497,-0.013849337585270405,0.025455128401517868,0.03877231106162071,0.03465275466442108,0.11625122278928757,-0.011852576397359371,-0.01183522492647171,-0.16700610518455505,-0.05848345905542374,-0.08433302491903305,-0.07461180537939072,0.05080974102020264,-0.04613809287548065,0.03544757142663002,-0.02717730402946472,0.002415549475699663,0.00532778725028038,-0.06242671608924866,-0.028027253225445747,0.023743920028209686,0.08307075500488281,-0.08437223732471466,0.014007138088345528,0.011956417001783848,0.10238910466432571,-0.04546838626265526,-0.03495201840996742,-0.08638424426317215,-0.0036510624922811985,0.07869236171245575,-0.10377580672502518,0.11430372297763824,0.001105518196709454,-0.06897071748971939,0.03729637712240219,0.040560755878686905,0.06373287737369537,-0.04871497303247452,-0.022434495389461517,0.05069468915462494,0.11797033250331879,-0.0065516019240021706,-0.02712804079055786,0.08162858337163925,-0.060305096209049225,-0.15611931681632996,-0.09795212745666504,-0.01768503338098526,0.003640377428382635,-0.10141618549823761,0.012087824754416943,0.043766088783741,-0.04525960981845856,-0.006789728067815304,-0.12654836475849152,0.09814265370368958,0.1193770319223404,0.011536064557731152,-0.08799031376838684,-0.004428544547408819,0.004998359829187393,0.06422939151525497,-0.07818832248449326,-0.034098923206329346,-0.020598821341991425,0.051379039883613586,-0.14343120157718658,-0.01477259211242199,-0.03805878385901451,-0.01373510342091322,0.04136822000145912,0.045441433787345886,-0.039310526102781296,-0.0786544680595398,0.07476628571748734,0.13347876071929932,0.10835392028093338,-0.1531660109758377,-0.08094488829374313,0.10826431214809418,-0.16640141606330872,-0.11614908277988434,-0.0407448336482048,0.04038544371724129,-0.010437103919684887,-0.06506942212581635,0.012482887133955956,0.14914317429065704,-0.06549710035324097,-0.031053222715854645,-0.00564615149050951,-0.00742387305945158,-0.06479690223932266,-0.20538954436779022,-0.07199130207300186,-0.008974050171673298,0.04549383372068405,0.01178453303873539,-0.01220784243196249,-0.016646703705191612,0.04985927417874336,0.07191552966833115,-0.08820364624261856,-0.05105999857187271,-0.043620120733976364,0.06925118714570999,-0.010348287411034107,0.1441696584224701,0.04504375904798508,0.08946400880813599,0.08740925788879395,0.0963059738278389,-0.0015535590937361121,0.09654298424720764,-0.0736214742064476,0.027164774015545845,-0.06177841126918793,0.059384509921073914,0.01820044219493866,0.03265531361103058,-0.03672409802675247,0.061094313859939575,0.10980958491563797,0.056865837424993515,0.04764518141746521,-0.02171378582715988,-0.03231172263622284,-0.08049008250236511,0.08334608376026154,0.06814238429069519,-0.024463290348649025,0.11472563445568085,0.042073462158441544,-0.09579285979270935,0.07809554785490036,0.019460219889879227,0.0033614893909543753,-0.05860426276922226,0.09635265171527863,0.05565245449542999,-0.11233224719762802,-0.029261037707328796,0.154836043715477,0.007483984809368849,-0.054507993161678314,-0.09147974103689194,-0.10026643425226212,0.12950313091278076,0.10191333293914795,-0.022345485165715218,-0.02332121506333351,-0.11116592586040497,-0.020652735605835915,-0.03335636481642723,0.08176767826080322,-0.06588368862867355,0.0133362440392375,-0.033942487090826035,-0.0600593276321888,0.036283157765865326,0.11830459535121918,0.0916077271103859,-0.15161585807800293,-0.04014836251735687,-0.039204083383083344,0.08729661256074905,0.06043805181980133,-0.05374413728713989,-0.023444881662726402,-0.0141133489087224,-0.07679279893636703,-0.017118779942393303,-0.12357942759990692,-0.07707325369119644,0.0834483876824379,-0.031252171844244,-0.05195404961705208,0.026657048612833023,-0.028458334505558014,-0.0008218436851166189,-0.03468756377696991,-0.05014457926154137,0.004597732797265053,-0.08677618950605392,-0.09974899142980576,0.010686828754842281,-0.003251156071200967,-0.14499147236347198,0.05002613365650177,0.001623339718207717,-0.11764486134052277,-0.007786217611283064,0.12741516530513763,-0.03388194739818573,0.09067171066999435,0.008765202946960926,0.0670059472322464,0.007053363136947155,0.13053838908672333,-0.0036134966649115086,-0.13554991781711578,-0.08222007751464844,-0.099965900182724,0.12070754170417786,0.044325537979602814,0.09713292866945267,-0.12163111567497253,-0.016424357891082764,0.06386265158653259,-0.004464348312467337,0.09293706715106964,0.04085040092468262,-0.004267676267772913,0.04532221332192421,-0.039673320949077606,0.04952739551663399,-0.03283512219786644,0.01201295480132103,-0.055419184267520905,-0.019219430163502693,0.004996522329747677,0.0176070649176836,0.1099688783288002,0.053051095455884933,0.028621209785342216,0.022008316591382027,-0.10923368483781815,0.1233765259385109,0.12897667288780212,0.04659796506166458,0.1825241893529892,-0.0716257095336914,0.04762702062726021,0.0033917257096618414,-0.034813571721315384,0.011469461023807526,-0.00933897402137518,0.007202669978141785,-0.02378666214644909,0.03227047622203827,-0.03988855704665184,-0.11838141828775406,0.03820262849330902,-0.009937571361660957,0.15301860868930817,0.05602733790874481,0.023709822446107864,0.08822846412658691,-0.06758048385381699,-0.09511417150497437,-0.0750201940536499,-0.08375929296016693,0.03567742556333542,-0.06226463243365288,-0.012691732496023178,0.0010804419871419668,-0.15418550372123718,0.11271269619464874,0.002697448479011655,0.038271594792604446,0.06243814155459404,-0.011428658850491047,0.06082392483949661,-0.17948143184185028,0.010441262274980545,-0.021099135279655457,0.04799267649650574,-0.0368051640689373,0.001597310765646398,0.061206359416246414,-0.09015107154846191,-0.04342632740736008,-0.05798467993736267,0.008526510559022427,-0.03346070647239685,-0.06009199470281601,0.017663417384028435,0.0947113111615181,-0.13550709187984467,0.13337573409080505,-0.04432443901896477,-0.022045494988560677,-0.04281236231327057,-0.11063473671674728,0.02235444262623787,0.06669983267784119,-0.01086051482707262,-0.12818709015846252,-0.06924451142549515,0.06644067168235779,0.017542803660035133,-0.038489293307065964,0.05354224890470505,-0.10390845686197281,0.09580948948860168,0.05861513689160347,-0.12504911422729492,-0.043017949908971786,-0.07909766584634781,-0.07888051867485046,0.02790529653429985,0.03850431367754936,-0.028119493275880814,-0.024289047345519066,-0.06280375272035599,0.028209993615746498,-0.025457169860601425,0.08080418407917023,-0.038620542734861374,-0.08609757572412491,0.1106823980808258,-0.05851713940501213,0.010513853281736374,-0.06756309419870377,-0.06482169032096863,-0.026010844856500626,-0.03786285221576691,0.09514902532100677,0.04761851951479912,-0.07475141435861588,0.1046309545636177,0.01265324093401432,-0.05706201493740082,-0.04540706425905228,0.0938481017947197,0.08963533490896225,-0.03079930879175663,-0.003538829507306218,-0.06686735898256302,-0.07905761897563934,-0.03600706532597542,0.12092527747154236,0.06474744528532028,-0.1735137403011322,0.01893443800508976,-0.13058899343013763,0.06372633576393127,-0.03421495109796524,0.013360485434532166,-0.02240472100675106,-0.043556030839681625,-0.07367472350597382,0.02866683341562748,-0.02459879033267498,-0.0682854950428009,0.0035193623043596745,-0.0063072629272937775,-0.09763354063034058,-0.13506774604320526,0.058314401656389236,-0.07128521800041199,0.04380045458674431,0.002200976014137268,0.036273423582315445,0.07268853485584259,-0.0651874765753746,-0.01652400940656662,0.10573720932006836,-0.04527709633111954,-0.11238003522157669,0.10385466367006302,-0.018165914341807365,0.06881019473075867,0.07691431045532227,-0.14326661825180054,0.07023431360721588,0.047003306448459625,0.0032267665956169367,0.015800878405570984,0.09256765246391296,0.003338293870911002,0.056357476860284805,0.052212826907634735,-0.13277390599250793,-0.039775799959897995,0.0753403976559639,0.000527754018548876,0.12888815999031067,-0.014616518281400204,-0.04491914436221123,0.08103394508361816,-0.022955410182476044,-0.08862641453742981,0.06448765099048615,0.03673170879483223,-0.02148273214697838,-0.04753073677420616,-0.03686708211898804,0.08220470696687698,-0.058522071689367294,0.15873675048351288,-0.07310289144515991,-0.09228482842445374,-0.04580380395054817,0.09432889521121979,-0.00022915677982382476,0.09072588384151459,0.09175167232751846,-0.03707066550850868,0.1566435694694519,0.038148507475852966,-0.04467670992016792,-0.08617474883794785,0.011709156446158886,0.10787994414567947,0.1350625604391098,-0.11553705483675003,-0.12285394221544266,-0.017715563997626305,0.03660232573747635,-0.018228840082883835,-0.10099512338638306,0.08780764043331146,0.0395406074821949,-0.0174406748265028,-0.009978962130844593,0.015742797404527664,0.048070017248392105,-0.0449400395154953,-0.021281223744153976,0.04291250556707382,-0.17052701115608215,0.01245036069303751,-0.04214458167552948,0.007250906899571419,0.11066404730081558,-0.17587949335575104,0.025257812812924385,-0.10386917740106583,-0.1330302655696869,-0.04343290254473686,-0.003313385182991624,-0.04413428530097008,-0.0703379437327385,-0.026980264112353325,0.10304687172174454,0.02032654732465744,0.009970659390091896,-0.005182649474591017,0.031690336763858795,-0.060271214693784714,-0.006205196958035231,0.03731454163789749,0.01814195327460766,0.08057229220867157,-0.06933818012475967,-0.008299381472170353,-0.049914296716451645,-0.034194450825452805,-0.03637758269906044,-0.028218358755111694,-0.0964839830994606,0.06110073998570442,-0.03315991163253784,-0.02461172267794609,0.01712183840572834,-0.05969545617699623,-0.027903808280825615,0.02551836520433426,0.022227292880415916,-0.06082857772707939,-0.016822006553411484,-0.053769711405038834,0.09094355255365372,0.06904253363609314,-0.015027591958642006,0.08269788324832916,-0.05822734162211418,-0.0772213488817215,0.02238447405397892,-0.019510740414261818,0.0001849933760240674,-0.1325407773256302,-0.11934944242238998,0.04914157837629318,-0.0632568970322609,-0.029720408841967583,-0.08721505850553513,0.008662011474370956,-0.018721064552664757,0.14604730904102325,0.05266158655285835,-0.11765825748443604,0.008456200361251831,0.013932177796959877,-0.0559033527970314,-0.05116609111428261,0.006344618741422892,0.007542442996054888,-0.04828852415084839,0.08589101582765579,-0.03472404554486275,0.02406209334731102,0.051850251853466034,0.054912880063056946,-0.032635487616062164,-0.011220728047192097,0.010037703439593315,0.030921507626771927,0.1057451069355011,0.005239658989012241,-0.040143221616744995,0.09740643948316574,-0.02417770028114319,-0.041815079748630524,-0.028603704646229744,0.010820555500686169,0.18399451673030853,-0.08612696081399918,0.034904737025499344,-0.02860872633755207,-0.06482239067554474,-0.10043423622846603,-0.005309694446623325,0.009653627872467041,-0.08192037791013718,-0.0855579674243927,0.08870872110128403,0.1637411266565323,0.07679079473018646,-0.08111081272363663,0.08072412014007568,-0.03280917927622795,0.12309224903583527,-0.02482719160616398,0.010873748920857906,0.05379948392510414,0.02748064696788788,0.09736043214797974,0.057245753705501556,-0.08413982391357422,0.0843372493982315,-0.1280805617570877,0.06670070439577103,0.018969208002090454,0.03260364755988121,0.042436063289642334,-0.15100881457328796,0.010521583259105682,-0.02555924654006958,0.023644179105758667,0.1532442718744278,-0.13331715762615204,0.0710824504494667,-0.09852683544158936,0.1311585009098053,-0.071437306702137,-0.009408589452505112,0.02352829836308956,-0.09203656762838364,-0.02453516609966755,-0.07374633848667145,0.042207177728414536,-0.007827919907867908,-0.010838720016181469,0.07014837116003036,-0.028248459100723267,0.11422386020421982,0.026038991287350655,0.048688583076000214,0.006301332265138626,0.006081817671656609,0.022174516692757607,0.005638871807605028,0.010997677221894264,-0.018464315682649612,-0.07446489483118057,-0.12814530730247498,0.007540617138147354,0.028338871896266937,-0.0015151052502915263,-0.010461523197591305,-0.11258615553379059,-0.028484223410487175,0.14272835850715637,-0.016008345410227776,0.09694123268127441,-0.14662517607212067,0.15718220174312592,-0.04207553341984749,-0.1504615694284439,0.07492893189191818,0.13088400661945343,-0.045369211584329605,-0.0025103266816586256,-0.0837828516960144,0.005353142507374287,-0.1605045050382614,-0.09905651956796646,0.04599305987358093,0.07958531379699707,-0.10381829738616943,-0.06629187613725662,-0.10517363995313644,-0.20058543980121613,0.04579361528158188,-0.0553443543612957,0.12824460864067078,0.044993333518505096,-0.032114483416080475,-0.0910288393497467,-0.08953308314085007,0.0528271310031414,0.056761372834444046,-0.0022387728095054626,0.034970059990882874,-0.15013734996318817,0.07559861987829208,0.008274722844362259,0.027298420667648315,-0.013429554179310799,-0.028779001906514168,-0.050497692078351974,0.15012529492378235,0.07320528477430344,0.01902388222515583,0.008357681334018707,-0.021289102733135223,-0.014181400649249554,-0.1469874382019043,-0.007769149262458086,0.07529450207948685,-0.012438004836440086,-0.20341628789901733,-0.014465736225247383,-0.07467885315418243,-0.009994631633162498,-0.044993724673986435,0.0009555089636705816,0.08027027547359467,-0.03188442066311836,-0.006987176835536957,0.12983036041259766,-0.13983063399791718,0.0795402079820633,-0.20162324607372284,-0.0816740021109581,-0.060637835413217545,0.013286911882460117,0.0776446983218193,-0.05954931676387787,-0.021644892171025276,-0.05980510264635086,0.020126542076468468,-0.07625864446163177,-0.0244734026491642,0.03452024608850479,0.10362767428159714,0.07343820482492447,0.14388518035411835,-0.03751726821064949,0.10576598346233368,-0.03586664795875549,-0.06737235188484192,0.1132165938615799,-0.11257513612508774,-0.0718550756573677,-0.031476520001888275,-0.07174207270145416,-5.097916800878011e-05,0.112644262611866,-0.0024808202870190144,-0.012166598811745644,0.06809390336275101,0.02421432174742222,0.044726867228746414,0.12073469907045364,0.0897965207695961,0.09124593436717987,-0.031237978488206863,-0.028098611161112785,0.0021526727359741926,-0.015939900651574135,0.015675529837608337,-0.0655389055609703,0.09123514592647552,0.14881063997745514,0.0024944317992776632,0.07094956934452057,-0.18207378685474396,-0.1239575669169426,0.02975655160844326,-0.1510494500398636,0.10526975244283676,0.027236683294177055,-0.004210443235933781,-0.20318150520324707,-0.09110976755619049,-0.0062578218057751656,0.12275135517120361,-0.04697851836681366,-0.043183356523513794,0.049008700996637344,-0.09537577629089355,0.01399739645421505,0.01685880310833454,0.1066822037100792,0.033193439245224,-0.048225175589323044,0.025449048727750778,-0.12992651760578156,0.027908025309443474,0.07503513991832733,-0.07727310061454773,-0.047722432762384415,0.031409479677677155,0.03864724561572075,0.13241060078144073,0.03956488147377968,0.042160943150520325,-0.07110501825809479,0.046486690640449524,-0.13908377289772034,-0.0116706732660532,-0.091433584690094,-0.018520934507250786,-0.020687110722064972,0.07913719117641449,-0.003982884343713522,-0.05274384096264839,-0.003024470992386341,-0.10172156244516373,0.081403449177742,-0.014170766808092594,-0.010825485922396183,0.019818633794784546,0.003451194614171982,-0.041594985872507095,0.03506195917725563,-0.1329459398984909,0.17986485362052917,0.004899767227470875,0.07918868213891983,0.0464041605591774,0.11778798699378967,0.09785435348749161,-0.06483613699674606,-0.07075762003660202,-0.04563901573419571,-0.0015872350195422769,-0.0064005120657384396,-0.0004297283594496548,0.006583197973668575,-0.07865158468484879,-0.03427954390645027,-0.04237808659672737,0.06678785383701324,0.04982473701238632,-0.10361398756504059,0.1111353412270546,0.0563042089343071,0.09248549491167068,0.07151351869106293,-0.08219020813703537,-0.07026726007461548,0.010386336594820023,-0.14103704690933228,-0.04166584834456444,-0.03281738981604576,0.02789592742919922,-0.04443390667438507,-0.06832753121852875,0.014002270065248013,0.07042977213859558,-0.009086414240300655,0.10295120626688004,0.008776878006756306,-0.03566468507051468,-4.814492058358155e-05,0.153060182929039,-0.07112143188714981,-0.10997068881988525,0.22794218361377716,-0.1491784006357193,0.11987772583961487,-0.0522213913500309,0.10536100715398788,0.009393168613314629,0.05863083526492119,0.13665831089019775,0.02993151545524597,0.029815081506967545,-0.14923354983329773,-0.15533022582530975,0.061565421521663666,0.01665874570608139,0.09162916988134384,0.06064611300826073,-0.010662171058356762,0.03950849175453186,0.04826933145523071,0.0013604849809780717,0.06242828443646431,-0.17738822102546692,-0.05889745056629181,-0.04795534908771515,-0.11169950664043427,0.10795370489358902,-0.10309161245822906,-0.08114974945783615,-0.07341232895851135,0.03223653510212898,0.10667494684457779,0.02472788095474243,-0.04442349821329117,-0.03236101195216179,0.03513991832733154,-0.10113706439733505,-0.08745657652616501,-0.08637576550245285,0.0637781023979187,0.01311187632381916,-0.07132110744714737,-0.0518609881401062,-0.12473843991756439,-0.006838311906903982,0.015621302649378777,-0.008930802345275879,0.0960988774895668,-0.16942693293094635,-0.18910080194473267,0.06899230182170868,0.13763737678527832,-0.08423645794391632,-0.055962249636650085,-0.06505388021469116,0.06192566081881523,-0.16582340002059937,0.15470749139785767,0.0773174986243248,-0.06632284075021744,-0.129032701253891,-0.014703357592225075,-0.08567387610673904,-0.07051949203014374,0.048887141048908234,-0.00252720364369452,-0.08374978601932526,0.162735715508461,-0.05221298709511757,-0.06043452024459839,0.024918967857956886,-0.1285252869129181,-0.08678877353668213,-0.0006372365169227123,0.060441918671131134,0.15623413026332855,0.03434856981039047,-0.08371630311012268,0.09794508665800095,0.005884348414838314,-0.09771227836608887,-0.0031371458899229765,0.019454311579465866,0.026875780895352364,-0.032119832932949066,0.1703687459230423,-0.031065043061971664,0.08647029101848602,0.0049565499648451805,0.06737396121025085,0.150197833776474,0.06200721487402916,-0.05070023238658905,-0.004891101270914078,-0.02525225095450878,-0.10221350193023682,-0.10190299898386002,0.1005849838256836,0.03503834828734398,0.003883048892021179,-0.019195759668946266,0.02534121833741665,0.04914083704352379,0.09362778812646866,-0.02788962982594967,-0.05106865614652634,-0.01745218224823475,-0.024871915578842163,-0.04732257127761841,-0.06597138941287994,-0.05083216354250908,0.004792566876858473,-0.14515073597431183,0.055884942412376404,-0.022556480020284653,0.011055679991841316,0.09554595500230789,0.022853337228298187,0.00643129600211978,-0.02071191743016243,0.028649281710386276,-0.16638673841953278,-0.06691157072782516,-0.06354803591966629,0.0781509280204773,-0.012447748333215714,0.014037475921213627,0.14090996980667114,-0.07224581390619278,-0.05221432447433472,-0.03282415121793747,0.12984570860862732,-0.09588351100683212,-0.0875629261136055,0.13247224688529968,-0.07750328630208969,0.036574892699718475,-0.07286518812179565,0.09123440086841583,-0.04780247062444687,-0.0802239328622818,0.003018314717337489,0.07906998693943024,-0.126302108168602,-0.09996654093265533,-0.044677864760160446,0.032424453645944595,0.04544561728835106,0.09227589517831802,0.012578032910823822,0.13334207236766815,-0.07098164409399033,-0.014424740336835384,0.016904303804039955,-0.021221525967121124,0.012861713767051697,-0.13859963417053223,0.03647356852889061,0.13458898663520813,0.10671956837177277,-0.061418987810611725,-0.022431403398513794,-0.12543992698192596,0.11058633029460907,-0.0661202147603035,0.00743338605388999,-0.046437669545412064,-0.08206481486558914,-0.12682044506072998,-0.12776869535446167,0.04882746562361717,0.029300332069396973,-0.14584603905677795,-0.03284647315740585,0.026408726349473,0.04100742191076279,-0.008368981070816517,0.035656411200761795,0.006444225553423166,-0.12564131617546082,-0.0912342295050621,0.11500543355941772,0.09389842301607132,0.020820023491978645,0.02808520197868347,0.00456390343606472,-0.021783841773867607,0.027893582358956337,-0.024126047268509865,-0.06794135272502899,0.08571189641952515,-0.11513202637434006,0.019207429140806198,-0.1505168080329895,0.056068722158670425,-0.16753505170345306,0.0723670944571495,-0.0788969025015831,-0.06837259978055954,-0.06195339187979698,-0.014944891445338726,0.12129778414964676,0.14438198506832123,-0.11737697571516037,0.04813584312796593,-0.04097801446914673,-0.049126408994197845,0.024974491447210312,0.0978863388299942,-0.10026069730520248,-0.04734741151332855,-0.11343027651309967,0.008780969306826591,0.03317483142018318,0.009703291580080986,0.05830416455864906,0.01833251118659973,0.065751813352108,0.07771096378564835,0.009165839292109013,-0.014755458571016788,-0.16394838690757751,0.03215252235531807,0.11175321042537689,0.04727780073881149,-0.07141700387001038,0.044348642230033875,0.002877800725400448,-0.0011383331147953868,0.07155892252922058,-0.03689790144562721,-0.05573522299528122,-0.013923258520662785,-0.13715369999408722,0.009992999024689198,-0.019032536074519157,0.0011476364452391863,0.03883039206266403,0.08335212618112564,0.06572183966636658,0.0043203686363995075,-0.03187363222241402,-0.007147663272917271,0.024531712755560875,0.012849121354520321,-0.03407071903347969,0.04593239724636078,0.15049010515213013,0.02955768257379532,-0.06460253149271011,0.1347929984331131,-0.008733137510716915,0.005120276473462582,0.1222442165017128,-0.05541728064417839,-0.08773690462112427,-0.08822719007730484,0.058376289904117584,-0.06204641982913017,-0.08149595558643341,0.07812400162220001,-0.07891734689474106,0.01420730073004961,0.01827915385365486,-0.08130450546741486,0.0326726920902729,-0.14779958128929138,0.03371736779808998,-0.008666899055242538,0.042301662266254425,-0.00574181042611599,0.008257590234279633,0.06661903113126755,-0.15469714999198914,0.09009396284818649,0.06458605825901031,0.0871749222278595,-0.11655919998884201,0.07302111387252808,-0.03851310536265373,-0.042313750833272934,-0.07263265550136566,-0.04739004001021385,-0.08111763000488281,0.10094195604324341,-0.03645947948098183,-0.05183999240398407,0.11580231785774231,-0.02788003720343113,-0.00753364572301507,-0.12729400396347046,0.1043696328997612,0.0752880647778511,-0.044659893959760666,-0.01698065921664238,-0.11672838032245636,-0.00915665365755558,-0.029540039598941803,0.0314459390938282,-0.05829248204827309,0.06508208066225052,-0.042729008942842484,0.08952045440673828,-0.16309143602848053,0.08548738807439804,-0.020421555265784264,-0.001474478980526328,-0.09529954195022583,0.10514991730451584,-0.07975930720567703,0.03851485624909401,-0.1786641627550125,0.06625974923372269,-0.11985860764980316,-0.08080755919218063,0.006248059682548046,-0.10720722377300262,-0.08254068344831467,0.07950904220342636,0.002144147641956806,-0.07330970466136932,0.025877607986330986,-0.08389952033758163,-0.05188900604844093,0.08241759240627289,-0.029180165380239487,0.005551576614379883,0.032178886234760284,-0.07608675956726074,0.05676599219441414,-0.1018630638718605,0.030723903328180313,0.023965060710906982,-0.09667819738388062,0.07394693791866302,-0.09194039553403854,0.10708944499492645,0.020540282130241394,0.11033903062343597,-0.06401105225086212,-0.05131114646792412,0.11563017219305038,-0.03293641284108162,-0.007230251096189022,0.015478753484785557,0.09079933911561966,0.03505076467990875,0.04376816749572754,0.04131264612078667,-0.07161756604909897,0.08611806482076645,-0.08585818111896515,0.04503266513347626,-0.033188123255968094,-0.16906589269638062,0.07172316312789917,-0.13769547641277313,0.03875625878572464,-0.1140320748090744,0.037660159170627594,0.04057176783680916,0.047156643122434616,0.06883985549211502,-0.07033073157072067,-0.009337781928479671,-0.002846391638740897,0.017613103613257408,-0.07931758463382721,-0.03479338809847832,0.003679761430248618,-0.03996742144227028,-0.11663949489593506,-0.04587274789810181,-0.14227931201457977,-0.09991218149662018,0.00027485511964187026,-0.0013633703347295523,-0.05201727896928787,-0.0842830017209053,-0.07542682439088821,-0.04605642706155777,0.056730739772319794,0.10859233886003494,0.08201371133327484,-0.020741110667586327,-0.05515863373875618,-0.029473602771759033,-0.0674748346209526,0.01286301203072071,0.07995268702507019,-0.0892932191491127,-0.14893899857997894,-0.12758027017116547,-0.057846520096063614,-0.07285305857658386,0.12270787358283997,-0.09791702032089233,-0.00978021789342165,-0.11532527208328247,0.06602834165096283,0.023514242842793465,-0.047244589775800705,0.03574775159358978,-0.08554429560899734,0.01784328743815422,-0.009483395144343376,-0.05246700346469879,0.08915586024522781,0.051146499812603,-0.07924836128950119,-0.035662099719047546,0.05944335088133812,0.14573624730110168,-0.11837559193372726,-0.03224261477589607,-0.08221904933452606,-0.08852583169937134,0.010049402713775635,0.0779307559132576,-0.08432856947183609,0.017181046307086945,0.05720933526754379,-0.09782447665929794,0.0917450487613678,-0.01638493686914444,0.10126693546772003,-0.020933814346790314,-0.09074918180704117,-0.06696557253599167,0.1665792614221573,0.09716709703207016,-0.09448762983083725,0.02940307930111885,-0.07282210886478424,0.02308930642902851,0.11245541274547577,-0.06124383583664894,-0.006075961980968714,0.06549591571092606,0.10209493339061737,-0.02379739284515381,-0.13628722727298737,-0.14280961453914642,0.008407393470406532,-0.0700383260846138,0.04933621734380722,-0.08212503790855408,0.07015390694141388,0.0376465767621994,0.0306612066924572,0.12339848279953003,0.12264087051153183,0.09584498405456543,-0.01970522105693817,-0.026952560991048813,-0.051543571054935455,-0.07706005126237869,0.0707814171910286,0.06224367767572403,-0.02745761349797249,0.10258084535598755,0.04214099049568176,0.034244272857904434,-0.08502040803432465,0.06470340490341187,0.08332580327987671,0.008733111433684826,0.05022280663251877,0.05100979655981064,0.03243622928857803,-0.07677766680717468,0.013096899725496769,-0.0648437887430191,0.03183094412088394,-0.06281811743974686,0.10915706306695938,0.019492728635668755,0.1061244085431099,0.0025367895141243935,0.00801214762032032,0.11435016989707947,-0.004784609191119671,0.09645339846611023,-0.044229015707969666,-0.04071815311908722,0.028558963909745216,-0.07446285337209702,-0.09279437363147736,0.011468096636235714,0.035747356712818146,0.04479372128844261,-0.07689554989337921,-0.08915575593709946,-0.055274248123168945,-0.03492199257016182,-0.07420442998409271,-0.030846435576677322,0.03967178240418434,-0.0050921509973704815,-0.03690306842327118,-0.05708090588450432,0.058705635368824005,0.0350971594452858,0.03394327312707901,0.07027215510606766,0.00902930274605751,0.05715871602296829,-0.08349617570638657,0.03231433779001236,-0.0010208076564595103,-0.008251911029219627,0.10364554822444916,0.032777730375528336,-0.017513688653707504,-0.006472006440162659,-0.04467377811670303,0.08744508773088455,-0.07598055154085159,0.05664822831749916,-0.07673633098602295,-0.07395584881305695,0.04735122248530388,0.0621383972465992,-0.03002477064728737,0.0536549836397171,-0.010341985151171684,-0.10920531302690506,0.03241162747144699,-0.06098758056759834,-0.05353865772485733,-0.04261775314807892,-0.033521026372909546,0.02909112721681595,0.05509331822395325,-0.03779406100511551,-0.016489949077367783,0.01957583613693714,-0.008652382530272007,-0.003959940746426582,-0.026188533753156662,0.09278527647256851,-0.052852481603622437,-0.0964280292391777,0.098567433655262,0.13121239840984344,-0.05960172042250633,0.062124017626047134,0.00011236230784561485,-0.04592486843466759,-0.04114921763539314,0.029938768595457077,0.10139662027359009,0.029644617810845375,-0.048358067870140076,0.000808068725746125,0.09703454375267029,-0.04396627098321915,-0.01028346735984087,-0.13807246088981628,-0.07181694358587265,0.06842982023954391,0.11616237461566925,-0.0056650396436452866,0.038308411836624146,-0.02491970919072628,-0.0003873707610182464,-0.06534002721309662,0.0727480873465538,0.01619659923017025,-0.08537721633911133,-0.03356809541583061,-0.05014811456203461,0.011953267268836498,-0.08347725123167038,0.04959177225828171,-0.01630638726055622,-0.024180943146348,0.030324697494506836,-0.023737110197544098,-0.12394560128450394,-0.06926668435335159,-0.036885395646095276,-0.047038860619068146,-0.021401816979050636,0.13504987955093384,0.0751931443810463,-0.001658713910728693,0.03579439967870712,-0.09186821430921555,-0.08971447497606277,-0.008074337616562843,0.0028697310481220484,0.09739191085100174,0.1539967656135559,-0.005613525398075581,-0.011358007788658142,-0.1428310126066208,0.05191503092646599,0.0023717533331364393,-0.013813039287924767,-0.030031252652406693,-0.04068386182188988,-0.03568900004029274,0.15504467487335205,0.0977456271648407,-0.04504425823688507,0.0038833997678011656,0.032746728509664536,-0.07613985240459442,-0.0010005697840824723,0.10773182660341263,-0.05294415354728699,0.23175302147865295,-0.06642379611730576,0.1404457688331604,0.01761750504374504,0.014027642086148262,0.052910372614860535,-0.01565895974636078,0.034056663513183594,-0.04079778864979744,-0.011193666607141495,-0.05818880721926689,0.07464231550693512,0.03743714094161987,-0.1582047939300537,-0.026933392509818077,-0.027776449918746948,0.0988587811589241,0.0781845673918724,0.1974858194589615,-0.059541262686252594,0.013152578845620155,0.010182767175137997,-0.10595444589853287,0.09328439831733704,0.047424957156181335,0.0019564104732125998,-0.03604090213775635,-0.07191812992095947,-0.10801277309656143,0.07427377253770828,-0.07193947583436966,0.08657138049602509,0.04757456108927727,-0.16978707909584045,-0.08422691375017166,0.049436673521995544,0.09047437459230423,0.07927709072828293,0.12126892805099487,-0.08245968073606491,-0.1822638213634491,-0.0407826192677021,-0.07037142664194107,-0.08809512853622437,0.09855834394693375,0.1240757554769516,-0.0417996421456337,-0.08025696873664856,-0.060207583010196686,-0.031880997121334076,-0.041259150952100754,-0.11729612201452255,-0.08639839291572571,0.04524865001440048,-0.04520764946937561,0.023292748257517815,-0.09556668251752853,-0.02724890224635601,0.04115084931254387,-0.04517525061964989,-0.04264900088310242,-0.08983416855335236,-0.002949952846392989,-0.016904177144169807,0.033740732818841934,0.07847888022661209,0.04573167860507965,0.08098600059747696,-0.08403204381465912,-0.0021634341683238745,-0.12106071412563324,-0.07467015087604523,-0.14046724140644073,0.12288440018892288,-0.10726245492696762,0.024169599637389183,-0.062402285635471344,0.02974105440080166,0.19826653599739075,0.050969723612070084,-0.10363585501909256,0.007283090613782406,0.028687335550785065,-0.2096688449382782,0.05188997462391853,0.01748352125287056,0.0054582166485488415,0.018313506618142128,0.15219193696975708,0.010016064159572124,0.15452022850513458,-0.1584949940443039,0.05839436501264572,-0.13370057940483093,0.12271317094564438,-0.023454394191503525,-0.10590129345655441,-0.05612180382013321,-0.10902728140354156,-0.018889710307121277,-0.13346897065639496,-0.13980050384998322,0.003058377420529723,0.09279835969209671,-0.06908317655324936,0.014244792982935905,-0.005550474394112825,-0.05233212932944298,-0.07111845910549164,-0.17110496759414673,0.10074149817228317,-0.02117551863193512,-0.014746972359716892,-0.0012982450425624847,-0.02344832755625248,0.07869505882263184,0.18576297163963318,-0.09601841121912003,-0.052260685712099075,-0.06817318499088287,0.06579960137605667,0.0646912157535553,0.004280619323253632,0.013833126984536648,0.13647666573524475,-0.16444462537765503,-0.03546575829386711,0.0007145004929043353,0.042750097811222076,-0.08382819592952728,-0.06356846541166306,-0.041434451937675476,0.056638799607753754,0.06720838695764542,0.00018118928710464388,0.07968258112668991,-0.08244876563549042,-0.021794918924570084,-0.03254641965031624,-0.1024262011051178,-0.03305951878428459,0.09342585504055023,0.06162131205201149,0.07594353705644608,-0.06928220391273499,0.020900413393974304,0.04739493504166603,0.03434450179338455,-0.04349246621131897,0.013860929757356644,-0.17648160457611084,-0.031240930780768394,-0.12347877770662308,0.07182316482067108,-0.12806658446788788,0.027815038338303566,0.04342522472143173,-0.008121391758322716,0.030477186664938927,-0.10674703121185303,-0.13826951384544373,-0.021098200231790543,-0.0292990542948246,0.01540586818009615,-0.09020468592643738,0.022685252130031586,0.10906285792589188,0.08982932567596436,0.16204464435577393,0.10169514268636703,-0.00931369885802269,-0.062337085604667664,-0.09416516870260239,-0.1680629551410675,-0.11808038502931595,-0.1659889966249466,-0.03448592498898506,0.07087672501802444,0.03924122080206871,-0.03334395959973335,-0.07166603952646255,-0.07626952975988388,-0.008575215004384518,0.06229950860142708,0.17015905678272247,0.019380850717425346,-0.13827000558376312,0.08334674686193466,0.019992036744952202,0.1336226910352707,-0.08978652954101562,0.10570038110017776,-0.16061042249202728,0.07625944912433624,0.0543682798743248,-0.040819790214300156,-0.10738780349493027,0.1342317759990692,0.15367242693901062,-0.15215516090393066,0.07340125739574432,-0.0478808768093586,-0.13752716779708862,-0.04508329927921295,-0.10141866654157639,0.11533495783805847,0.009994876570999622,-0.11892548948526382,0.08026514947414398,-0.008235582150518894,0.08058828860521317,-0.04322757571935654,-0.008908633142709732,-0.03225741162896156,-0.037183694541454315,-0.06265444308519363,-0.12397100031375885,0.10904735326766968,-0.07285752892494202,-0.1417456865310669,-0.14650395512580872,0.00915039423853159,0.006523588672280312,